{"learner":{"attributes":{"best_iteration":"99","best_ntree_limit":"100","scikit_learn":"{\"n_estimators\": 100, \"objective\": \"reg:squarederror\", \"max_depth\": 3, \"max_leaves\": null, \"max_bin\": null, \"grow_policy\": null, \"learning_rate\": 0.2, \"verbosity\": null, \"booster\": null, \"tree_method\": null, \"gamma\": null, \"min_child_weight\": null, \"max_delta_step\": null, \"subsample\": 1, \"sampling_method\": null, \"colsample_bytree\": null, \"colsample_bylevel\": null, \"colsample_bynode\": null, \"reg_alpha\": null, \"reg_lambda\": null, \"scale_pos_weight\": null, \"base_score\": null, \"missing\": NaN, \"num_parallel_tree\": null, \"random_state\": 42, \"n_jobs\": null, \"monotone_constraints\": null, \"interaction_constraints\": null, \"importance_type\": null, \"gpu_id\": null, \"validate_parameters\": null, \"predictor\": null, \"enable_categorical\": false, \"feature_types\": null, \"max_cat_to_onehot\": null, \"max_cat_threshold\": null, \"eval_metric\": null, \"early_stopping_rounds\": null, \"callbacks\": null, \"kwargs\": {\"lambda\": 1.2}, \"_estimator_type\": \"regressor\"}"},"feature_names":[],"feature_types":[],"gradient_booster":{"model":{"gbtree_model_param":{"num_parallel_tree":"1","num_trees":"100","size_leaf_vector":"0"},"tree_info":[0,0,0,0,0,0,0,0,0,0,0,0,0,0,0,0,0,0,0,0,0,0,0,0,0,0,0,0,0,0,0,0,0,0,0,0,0,0,0,0,0,0,0,0,0,0,0,0,0,0,0,0,0,0,0,0,0,0,0,0,0,0,0,0,0,0,0,0,0,0,0,0,0,0,0,0,0,0,0,0,0,0,0,0,0,0,0,0,0,0,0,0,0,0,0,0,0,0,0,0],"trees":[{"base_weights":[9.6197003E-1,9.15539E-1,1.3199903E0,9.4971836E-1,6.481641E-1,1.3726388E0,1.2594697E0,1.0004274E0,7.021309E-1,7.1380895E-1,5.001398E-1,1.3766426E0,9.717608E-1,1.1230923E0,1.2894685E0],"categories":[],"categories_nodes":[],"categories_segments":[],"categories_sizes":[],"default_left":[1,1,1,1,1,1,1,0,0,0,0,0,0,0,0],"id":0,"left_children":[1,3,5,7,9,11,13,-1,-1,-1,-1,-1,-1,-1,-1],"loss_changes":[1.5392344E3,7.490547E2,3.181836E1,9.1246094E2,8.997119E1,7.5029297E0,1.8567871E1,0E0,0E0,0E0,0E0,0E0,0E0,0E0,0E0],"parents":[2147483647,0,0,1,1,2,2,3,3,4,4,5,5,6,6],"right_children":[2,4,6,8,10,12,14,-1,-1,-1,-1,-1,-1,-1,-1],"split_conditions":[5E-1,5E-1,1.5E0,5E-1,2.5E0,4.5E0,5.5E0,2.0008548E-1,1.4042619E-1,1.427618E-1,1.00027956E-1,2.7532852E-1,1.9435216E-1,2.2461846E-1,2.578937E-1],"split_indices":[9,10,24,12,21,25,20,0,0,0,0,0,0,0,0],"split_type":[0,0,0,0,0,0,0,0,0,0,0,0,0,0,0],"sum_hessian":[9.2681E4,8.2045E4,1.0636E4,7.2743E4,9.302E3,5.674E3,4.962E3,6.0374E4,1.2369E4,6.441E3,2.861E3,5.615E3,5.9E1,9.03E2,4.059E3],"tree_param":{"num_deleted":"0","num_feature":"28","num_nodes":"15","size_leaf_vector":"0"}},{"base_weights":[7.695959E-1,7.324398E-1,1.0560997E0,5.95319E-1,7.8315175E-1,1.0888165E0,9.920565E-1,4.788639E-1,7.404045E-1,9.947361E-1,7.372505E-1,1.1061493E0,9.8821634E-1,1.0051489E0,7.799057E-1],"categories":[],"categories_nodes":[],"categories_segments":[],"categories_sizes":[],"default_left":[1,1,1,1,1,1,1,0,0,0,0,0,0,0,0],"id":1,"left_children":[1,3,5,7,9,11,13,-1,-1,-1,-1,-1,-1,-1,-1],"loss_changes":[9.8570703E2,5.6996484E2,2.0992188E1,3.7392383E2,5.8078516E2,1.0943359E1,9.08667E0,0E0,0E0,0E0,0E0,0E0,0E0,0E0,0E0],"parents":[2147483647,0,0,1,1,2,2,3,3,4,4,5,5,6,6],"right_children":[2,4,6,8,10,12,14,-1,-1,-1,-1,-1,-1,-1,-1],"split_conditions":[5E-1,5E-1,1.5E0,5E-1,2.85E1,5E-1,5E-1,9.577278E-2,1.480809E-1,1.9894722E-1,1.474501E-1,2.2122987E-1,1.9764327E-1,2.0102978E-1,1.5598114E-1],"split_indices":[9,20,25,8,20,6,6,0,0,0,0,0,0,0,0],"split_type":[0,0,0,0,0,0,0,0,0,0,0,0,0,0,0],"sum_hessian":[9.2681E4,8.2045E4,1.0636E4,2.2155E4,5.989E4,7.027E3,3.609E3,1.2293E4,9.862E3,1.0672E4,4.9218E4,5.984E3,1.043E3,3.395E3,2.14E2],"tree_param":{"num_deleted":"0","num_feature":"28","num_nodes":"15","size_leaf_vector":"0"}},{"base_weights":[6.156944E-1,5.8596045E-1,8.449672E-1,6.1241376E-1,3.790392E-1,7.4601156E-1,8.6408633E-1,4.8725903E-1,6.617255E-1,4.372235E-1,2.443483E-1,9.365326E-1,7.075305E-1,8.984895E-1,8.2275087E-1],"categories":[],"categories_nodes":[],"categories_segments":[],"categories_sizes":[],"default_left":[1,1,1,1,1,1,1,0,0,0,0,0,0,0,0],"id":2,"left_children":[1,3,5,7,9,11,13,-1,-1,-1,-1,-1,-1,-1,-1],"loss_changes":[6.312344E2,4.4882422E2,1.9351562E1,4.4856055E2,7.278003E1,1.1897034E1,1.1779785E1,0E0,0E0,0E0,0E0,0E0,0E0,0E0,0E0],"parents":[2147483647,0,0,1,1,2,2,3,3,4,4,5,5,6,6],"right_children":[2,4,6,8,10,12,14,-1,-1,-1,-1,-1,-1,-1,-1],"split_conditions":[5E-1,5E-1,5.5E0,5E-1,5E-1,5E-1,1.5E0,9.7451806E-2,1.3234511E-1,8.74447E-2,4.8869662E-2,1.8730652E-1,1.415061E-1,1.796979E-1,1.6455017E-1],"split_indices":[9,10,20,20,24,27,24,0,0,0,0,0,0,0,0],"split_type":[0,0,0,0,0,0,0,0,0,0,0,0,0,0,0],"sum_hessian":[9.2681E4,8.2045E4,1.0636E4,7.2743E4,9.302E3,1.73E3,8.906E3,2.0564E4,5.2179E4,6.494E3,2.808E3,2.86E2,1.444E3,4.847E3,4.059E3],"tree_param":{"num_deleted":"0","num_feature":"28","num_nodes":"15","size_leaf_vector":"0"}},{"base_weights":[4.9256897E-1,4.687737E-1,6.760497E-1,4.5352706E-1,7.3199636E-1,5.970372E-1,6.913155E-1,4.3904787E-1,7.2062904E-1,8.4475076E-1,6.5818727E-1,7.5000876E-1,5.661419E-1,6.944565E-1,2.9540458E-1],"categories":[],"categories_nodes":[],"categories_segments":[],"categories_sizes":[],"default_left":[1,1,1,1,1,1,1,0,0,0,0,0,0,0,0],"id":3,"left_children":[1,3,5,7,9,11,13,-1,-1,-1,-1,-1,-1,-1,-1],"loss_changes":[4.0426758E2,3.28875E2,1.23359375E1,2.9956543E2,3.670166E1,7.672241E0,1.0830078E1,0E0,0E0,0E0,0E0,0E0,0E0,0E0,0E0],"parents":[2147483647,0,0,1,1,2,2,3,3,4,4,5,5,6,6],"right_children":[2,4,6,8,10,12,14,-1,-1,-1,-1,-1,-1,-1,-1],"split_conditions":[5E-1,5E-1,5.5E0,5E-1,5.5E0,5E-1,8.35E1,8.780958E-2,1.441258E-1,1.6895016E-1,1.3163745E-1,1.5000175E-1,1.1322838E-1,1.3889131E-1,5.9080917E-2],"split_indices":[9,13,20,11,20,27,20,0,0,0,0,0,0,0,0],"split_type":[0,0,0,0,0,0,0,0,0,0,0,0,0,0,0],"sum_hessian":[9.2681E4,8.2045E4,1.0636E4,7.7556E4,4.489E3,1.73E3,8.906E3,7.3571E4,3.985E3,1.771E3,2.718E3,2.86E2,1.444E3,8.835E3,7.1E1],"tree_param":{"num_deleted":"0","num_feature":"28","num_nodes":"15","size_leaf_vector":"0"}},{"base_weights":[3.9406806E-1,4.1399172E-1,2.1545066E-1,4.41464E-1,2.5624686E-1,2.5621754E-1,6.6641115E-2,5.2231604E-1,3.9717704E-1,2.0438856E-1,5.2659357E-1,1.7469174E-1,3.0448067E-1,1.0570858E-1,-7.267878E-2],"categories":[],"categories_nodes":[],"categories_segments":[],"categories_sizes":[],"default_left":[1,1,1,1,1,1,1,0,0,0,0,0,0,0,0],"id":4,"left_children":[1,3,5,7,9,11,13,-1,-1,-1,-1,-1,-1,-1,-1],"loss_changes":[3.2972266E2,3.6120117E2,5.641739E1,2.5402051E2,1.7329755E2,2.866803E1,1.0906944E1,0E0,0E0,0E0,0E0,0E0,0E0,0E0,0E0],"parents":[2147483647,0,0,1,1,2,2,3,3,4,4,5,5,6,6],"right_children":[2,4,6,8,10,12,14,-1,-1,-1,-1,-1,-1,-1,-1],"split_conditions":[5E-1,5E-1,1.5E0,5E-1,4.75E1,5E-1,7.95E1,1.0446321E-1,7.943541E-2,4.087771E-2,1.0531872E-1,3.4938347E-2,6.0896136E-2,2.1141715E-2,-1.4535757E-2],"split_indices":[10,12,27,8,20,26,17,0,0,0,0,0,0,0,0],"split_type":[0,0,0,0,0,0,0,0,0,0,0,0,0,0,0],"sum_hessian":[9.2681E4,8.3379E4,9.302E3,7.101E4,1.2369E4,7.301E3,2.001E3,2.5126E4,4.5884E4,1.038E4,1.989E3,2.717E3,4.584E3,1.563E3,4.38E2],"tree_param":{"num_deleted":"0","num_feature":"28","num_nodes":"15","size_leaf_vector":"0"}},{"base_weights":[3.1526002E-1,3.3119813E-1,1.7237376E-1,2.3922105E-1,3.615961E-1,2.3847869E-1,9.7010486E-2,4.2287964E-1,1.8625125E-1,4.3625966E-1,3.1535482E-1,1.2121691E-1,2.957063E-1,1.4619648E-1,8.355139E-3],"categories":[],"categories_nodes":[],"categories_segments":[],"categories_sizes":[],"default_left":[1,1,1,1,1,1,1,0,0,0,0,0,0,0,0],"id":5,"left_children":[1,3,5,7,9,11,13,-1,-1,-1,-1,-1,-1,-1,-1],"loss_changes":[2.11E2,2.3302051E2,4.6319702E1,2.0143018E2,2.1619336E2,3.3209442E1,1.8963669E1,0E0,0E0,0E0,0E0,0E0,0E0,0E0,0E0],"parents":[2147483647,0,0,1,1,2,2,3,3,4,4,5,5,6,6],"right_children":[2,4,6,8,10,12,14,-1,-1,-1,-1,-1,-1,-1,-1],"split_conditions":[5E-1,5E-1,5E-1,1.55E1,8.35E1,3.45E1,9.5E0,8.457593E-2,3.725025E-2,8.725193E-2,6.307097E-2,2.4243383E-2,5.914126E-2,2.9239297E-2,1.6710277E-3],"split_indices":[10,20,27,18,20,20,26,0,0,0,0,0,0,0,0],"split_type":[0,0,0,0,0,0,0,0,0,0,0,0,0,0,0],"sum_hessian":[9.2681E4,8.3379E4,9.302E3,2.0714E4,6.2665E4,4.954E3,4.348E3,4.635E3,1.6079E4,2.3963E4,3.8702E4,1.626E3,3.328E3,2.796E3,1.552E3],"tree_param":{"num_deleted":"0","num_feature":"28","num_nodes":"15","size_leaf_vector":"0"}},{"base_weights":[2.52213E-1,2.7170146E-1,1.6865332E-1,1.8052994E-1,3.0813497E-1,3.0388504E-1,4.1625746E-2,2.1034792E-1,-4.086352E-1,3.3586577E-1,2.4481367E-1,3.2541454E-1,1.8407694E-1,8.8764824E-2,-7.729172E-2],"categories":[],"categories_nodes":[],"categories_segments":[],"categories_sizes":[],"default_left":[1,1,1,1,1,1,1,0,0,0,0,0,0,0,0],"id":6,"left_children":[1,3,5,7,9,11,13,-1,-1,-1,-1,-1,-1,-1,-1],"loss_changes":[1.5087305E2,2.495669E2,3.0113846E2,3.7710992E2,9.418408E1,2.1830383E1,5.0690125E1,0E0,0E0,0E0,0E0,0E0,0E0,0E0,0E0],"parents":[2147483647,0,0,1,1,2,2,3,3,4,4,5,5,6,6],"right_children":[2,4,6,8,10,12,14,-1,-1,-1,-1,-1,-1,-1,-1],"split_conditions":[3.5E0,5E-1,8.45E1,5E-1,1.5E0,6.5E0,2.5E0,4.2069584E-2,-8.172704E-2,6.717315E-2,4.8962735E-2,6.508291E-2,3.6815386E-2,1.7752966E-2,-1.54583445E-2],"split_indices":[21,20,20,27,22,24,27,0,0,0,0,0,0,0,0],"split_type":[0,0,0,0,0,0,0,0,0,0,0,0,0,0,0],"sum_hessian":[9.2681E4,7.5151E4,1.753E4,2.1459E4,5.3692E4,8.49E3,9.04E3,2.0426E4,1.033E3,3.7336E4,1.6356E4,7.195E3,1.295E3,6.474E3,2.566E3],"tree_param":{"num_deleted":"0","num_feature":"28","num_nodes":"15","size_leaf_vector":"0"}},{"base_weights":[2.0177276E-1,2.7732795E-1,1.8111002E-1,3.2683542E-1,2.1674623E-1,1.02321684E-1,2.0745808E-1,3.9074072E-1,2.9516858E-1,3.0036584E-1,1.4367291E-1,2.9768005E-2,1.9849178E-1,2.6600015E-1,1.4980166E-1],"categories":[],"categories_nodes":[],"categories_segments":[],"categories_sizes":[],"default_left":[1,1,1,1,1,1,1,0,0,0,0,0,0,0,0],"id":7,"left_children":[1,3,5,7,9,11,13,-1,-1,-1,-1,-1,-1,-1,-1],"loss_changes":[1.446333E2,5.9603394E1,1.5106494E2,2.201941E1,5.4655518E1,1.2727774E2,1.8404663E2,0E0,0E0,0E0,0E0,0E0,0E0,0E0,0E0],"parents":[2147483647,0,0,1,1,2,2,3,3,4,4,5,5,6,6],"right_children":[2,4,6,8,10,12,14,-1,-1,-1,-1,-1,-1,-1,-1],"split_conditions":[1.55E1,5E-1,5E-1,3.5E0,8.85E1,5E-1,1.5E0,7.814815E-2,5.9033718E-2,6.0073167E-2,2.8734583E-2,5.953601E-3,3.969836E-2,5.3200033E-2,2.9960332E-2],"split_indices":[18,21,23,19,20,8,21,0,0,0,0,0,0,0,0],"split_type":[0,0,0,0,0,0,0,0,0,0,0,0,0,0,0],"sum_hessian":[9.2681E4,1.99E4,7.2781E4,1.0948E4,8.952E3,1.8241E4,5.454E4,3.623E3,7.325E3,4.173E3,4.779E3,1.0398E4,7.843E3,2.706E4,2.748E4],"tree_param":{"num_deleted":"0","num_feature":"28","num_nodes":"15","size_leaf_vector":"0"}},{"base_weights":[1.6142283E-1,1.7333996E-1,5.459447E-2,1.7944382E-1,-6.3799314E-2,7.788056E-2,-5.0802868E-2,1.9586597E-1,8.7932214E-2,-3.2218108E-1,4.8982907E-2,-1.4703202E-3,1.03249185E-1,8.094329E-2,-1.1289535E-1],"categories":[],"categories_nodes":[],"categories_segments":[],"categories_sizes":[],"default_left":[1,1,1,1,1,1,1,0,0,0,0,0,0,0,0],"id":8,"left_children":[1,3,5,7,9,11,13,-1,-1,-1,-1,-1,-1,-1,-1],"loss_changes":[1.1798096E2,1.2070361E2,2.2837519E1,1.22140625E2,6.1016598E1,1.5339813E1,1.3788473E1,0E0,0E0,0E0,0E0,0E0,0E0,0E0,0E0],"parents":[2147483647,0,0,1,1,2,2,3,3,4,4,5,5,6,6],"right_children":[2,4,6,8,10,12,14,-1,-1,-1,-1,-1,-1,-1,-1],"split_conditions":[5E-1,5E-1,1.5E0,5E-1,5E-1,5E-1,4.685E1,3.9173197E-2,1.7586444E-2,-6.443622E-2,9.796581E-3,-2.9406403E-4,2.0649837E-2,1.6188657E-2,-2.257907E-2],"split_indices":[10,15,25,12,20,5,17,0,0,0,0,0,0,0,0],"split_type":[0,0,0,0,0,0,0,0,0,0,0,0,0,0,0],"sum_hessian":[9.2681E4,8.3379E4,9.302E3,8.1287E4,2.092E3,7.619E3,1.683E3,6.8918E4,1.2369E4,6.35E2,1.457E3,1.846E3,5.773E3,5.39E2,1.144E3],"tree_param":{"num_deleted":"0","num_feature":"28","num_nodes":"15","size_leaf_vector":"0"}},{"base_weights":[1.2913844E-1,1.8876103E-1,1.1283341E-1,2.3143625E-1,1.379047E-1,7.035309E-2,1.4284001E-1,2.953202E-1,1.9855161E-1,2.0227131E-1,9.220817E-2,9.594852E-2,-4.0566318E-2,2.0515314E-1,8.492453E-2],"categories":[],"categories_nodes":[],"categories_segments":[],"categories_sizes":[],"default_left":[1,1,1,1,1,1,1,0,0,0,0,0,0,0,0],"id":9,"left_children":[1,3,5,7,9,11,13,-1,-1,-1,-1,-1,-1,-1,-1],"loss_changes":[9.007532E1,4.315338E1,9.276288E1,2.265857E1,2.6694305E1,8.5548065E1,1.5390637E2,0E0,0E0,0E0,0E0,0E0,0E0,0E0,0E0],"parents":[2147483647,0,0,1,1,2,2,3,3,4,4,5,5,6,6],"right_children":[2,4,6,8,10,12,14,-1,-1,-1,-1,-1,-1,-1,-1],"split_conditions":[1.55E1,5E-1,5E-1,3.5E0,8.85E1,5E-1,8.35E1,5.906404E-2,3.9710324E-2,4.0454265E-2,1.8441634E-2,1.9189704E-2,-8.113264E-3,4.1030627E-2,1.6984906E-2],"split_indices":[18,22,26,19,20,4,20,0,0,0,0,0,0,0,0],"split_type":[0,0,0,0,0,0,0,0,0,0,0,0,0,0,0],"sum_hessian":[9.2681E4,1.99E4,7.2781E4,1.0818E4,9.082E3,3.013E4,4.2651E4,3.673E3,7.145E3,3.769E3,5.313E3,2.4481E4,5.649E3,2.0544E4,2.2107E4],"tree_param":{"num_deleted":"0","num_feature":"28","num_nodes":"15","size_leaf_vector":"0"}},{"base_weights":[1.0331368E-1,1.1976433E-1,4.438311E-2,6.587278E-2,1.4487386E-1,1.3631102E-1,-3.8683314E-2,1.3627681E-2,1.29434E-1,1.8694825E-1,1.0572729E-1,2.737448E-1,1.1558958E-1,1.7197227E-2,-1.2116406E-1],"categories":[],"categories_nodes":[],"categories_segments":[],"categories_sizes":[],"default_left":[1,1,1,1,1,1,1,0,0,0,0,0,0,0,0],"id":10,"left_children":[1,3,5,7,9,11,13,-1,-1,-1,-1,-1,-1,-1,-1],"loss_changes":[8.984387E1,9.8034424E1,1.5447134E2,7.647902E1,8.1382935E1,2.7307419E1,4.898399E1,0E0,0E0,0E0,0E0,0E0,0E0,0E0,0E0],"parents":[2147483647,0,0,1,1,2,2,3,3,4,4,5,5,6,6],"right_children":[2,4,6,8,10,12,14,-1,-1,-1,-1,-1,-1,-1,-1],"split_conditions":[2.5E0,5E-1,8.45E1,5E-1,5E-1,5E-1,5E-1,2.7255362E-3,2.5886802E-2,3.738965E-2,2.114546E-2,5.474896E-2,2.3117917E-2,3.4394455E-3,-2.4232812E-2],"split_indices":[22,23,20,8,21,24,24,0,0,0,0,0,0,0,0],"split_type":[0,0,0,0,0,0,0,0,0,0,0,0,0,0,0],"sum_hessian":[9.2681E4,7.2454E4,2.0227E4,2.303E4,4.9424E4,9.601E3,1.0626E4,1.2641E4,1.0389E4,2.3819E4,2.5605E4,1.256E3,8.345E3,6.335E3,4.291E3],"tree_param":{"num_deleted":"0","num_feature":"28","num_nodes":"15","size_leaf_vector":"0"}},{"base_weights":[8.265282E-2,8.696624E-2,-1.0407201E-1,9.4858035E-2,-1.328046E-2,-2.7108765E-1,-2.371283E-3,6.384436E-2,1.19036704E-1,9.450495E-2,-1.2214209E-1,-1.06882006E-1,-6.594137E-1,7.957332E-2,-2.2367412E-1],"categories":[],"categories_nodes":[],"categories_segments":[],"categories_sizes":[],"default_left":[1,1,1,1,1,1,1,0,0,0,0,0,0,0,0],"id":11,"left_children":[1,3,5,7,9,11,13,-1,-1,-1,-1,-1,-1,-1,-1],"loss_changes":[7.465906E1,7.166986E1,3.5553513E1,6.2964355E1,7.7599396E1,5.043032E1,2.3636198E1,0E0,0E0,0E0,0E0,0E0,0E0,0E0,0E0],"parents":[2147483647,0,0,1,1,2,2,3,3,4,4,5,5,6,6],"right_children":[2,4,6,8,10,12,14,-1,-1,-1,-1,-1,-1,-1,-1],"split_conditions":[5E-1,6.5E0,2.5E0,5E-1,3.95E1,5E-1,8.05E1,1.2768872E-2,2.3807341E-2,1.890099E-2,-2.4428418E-2,-2.1376401E-2,-1.3188274E-1,1.5914664E-2,-4.4734824E-2],"split_indices":[15,21,20,26,20,27,20,0,0,0,0,0,0,0,0],"split_type":[0,0,0,0,0,0,0,0,0,0,0,0,0,0,0],"sum_hessian":[9.2681E4,9.0589E4,2.092E3,8.3978E4,6.611E3,7.91E2,1.301E3,3.6791E4,4.7187E4,3.322E3,3.289E3,5.57E2,2.34E2,9.5E2,3.51E2],"tree_param":{"num_deleted":"0","num_feature":"28","num_nodes":"15","size_leaf_vector":"0"}},{"base_weights":[6.6120334E-2,9.121093E-2,3.9429605E-2,1.1290502E-1,2.8951272E-2,9.4018996E-2,-1.2556382E-2,1.10535905E-1,4.565247E-1,5.812719E-2,-1.0429345E-1,1.2191572E-1,-2.6615265E-1,2.9188734E-2,-8.5099846E-2],"categories":[],"categories_nodes":[],"categories_segments":[],"categories_sizes":[],"default_left":[1,1,1,1,1,1,1,0,0,0,0,0,0,0,0],"id":12,"left_children":[1,3,5,7,9,11,13,-1,-1,-1,-1,-1,-1,-1,-1],"loss_changes":[6.206372E1,6.452042E1,1.2745418E2,2.8779816E1,4.8003586E1,2.2015388E2,6.967044E1,0E0,0E0,0E0,0E0,0E0,0E0,0E0,0E0],"parents":[2147483647,0,0,1,1,2,2,3,3,4,4,5,5,6,6],"right_children":[2,4,6,8,10,12,14,-1,-1,-1,-1,-1,-1,-1,-1],"split_conditions":[5E-1,7.95E1,4.05E1,2.05E1,5E-1,5E-1,5.5E0,2.2107182E-2,9.130494E-2,1.1625438E-2,-2.085869E-2,2.4383144E-2,-5.323053E-2,5.837747E-3,-1.701997E-2],"split_indices":[27,18,20,26,4,12,26,0,0,0,0,0,0,0,0],"split_type":[0,0,0,0,0,0,0,0,0,0,0,0,0,0,0],"sum_hessian":[9.2681E4,4.7771E4,4.491E4,3.5426E4,1.2345E4,2.1906E4,2.3004E4,3.5185E4,2.41E2,1.0128E4,2.217E3,2.0332E4,1.574E3,1.4602E4,8.402E3],"tree_param":{"num_deleted":"0","num_feature":"28","num_nodes":"15","size_leaf_vector":"0"}},{"base_weights":[5.2897103E-2,1.3201228E-1,4.562009E-2,2.0441827E-1,1.1210112E-1,3.995149E-2,1.5169711E-1,1.05641924E-1,2.7837893E-1,1.6165668E-1,8.139357E-2,6.325839E-2,1.320836E-2,2.5483578E-1,8.564135E-2],"categories":[],"categories_nodes":[],"categories_segments":[],"categories_sizes":[],"default_left":[1,1,1,1,1,1,1,0,0,0,0,0,0,0,0],"id":13,"left_children":[1,3,5,7,9,11,13,-1,-1,-1,-1,-1,-1,-1,-1],"loss_changes":[5.335196E1,1.1226593E1,5.103009E1,1.225412E1,9.305115E0,5.022023E1,2.930474E1,0E0,0E0,0E0,0E0,0E0,0E0,0E0,0E0],"parents":[2147483647,0,0,1,1,2,2,3,3,4,4,5,5,6,6],"right_children":[2,4,6,8,10,12,14,-1,-1,-1,-1,-1,-1,-1,-1],"split_conditions":[3.5E0,2.5E0,5E-1,5E-1,4.55E1,5E-1,5.5E0,2.1128384E-2,5.5675786E-2,3.2331336E-2,1.6278714E-2,1.2651677E-2,2.641672E-3,5.0967157E-2,1.712827E-2],"split_indices":[18,16,13,8,17,27,20,0,0,0,0,0,0,0,0],"split_type":[0,0,0,0,0,0,0,0,0,0,0,0,0,0,0],"sum_hessian":[9.2681E4,7.805E3,8.4876E4,1.681E3,6.124E3,8.0572E4,4.304E3,7.21E2,9.6E2,2.341E3,3.783E3,4.3051E4,3.7521E4,1.679E3,2.625E3],"tree_param":{"num_deleted":"0","num_feature":"28","num_nodes":"15","size_leaf_vector":"0"}},{"base_weights":[4.232038E-2,4.5872983E-2,-1.11454494E-1,5.3750824E-2,-2.2966849E-2,-2.7828816E-1,-3.8574696E-2,6.503091E-2,1.1831098E-2,-1.3504103E-3,-9.3168706E-2,-1.3364391E-1,-7.534975E-1,-1.6039418E-3,-3.2596514E-1],"categories":[],"categories_nodes":[],"categories_segments":[],"categories_sizes":[],"default_left":[1,1,1,1,1,1,1,0,0,0,0,0,0,0,0],"id":14,"left_children":[1,3,5,7,9,11,13,-1,-1,-1,-1,-1,-1,-1,-1],"loss_changes":[5.063849E1,4.912938E1,2.543792E1,3.843686E1,1.4117589E1,4.360919E1,1.5492808E1,0E0,0E0,0E0,0E0,0E0,0E0,0E0,0E0],"parents":[2147483647,0,0,1,1,2,2,3,3,4,4,5,5,6,6],"right_children":[2,4,6,8,10,12,14,-1,-1,-1,-1,-1,-1,-1,-1],"split_conditions":[5E-1,5E-1,5E-1,2.5E0,7.95E1,5E-1,2.035E2,1.3006182E-2,2.3662196E-3,-2.7008206E-4,-1.8633742E-2,-2.6728783E-2,-1.506995E-1,-3.2078836E-4,-6.519303E-2],"split_indices":[15,10,20,22,17,27,20,0,0,0,0,0,0,0,0],"split_type":[0,0,0,0,0,0,0,0,0,0,0,0,0,0,0],"sum_hessian":[9.2681E4,9.0589E4,2.092E3,8.1287E4,9.302E3,6.35E2,1.457E3,6.4051E4,1.7236E4,7.113E3,2.189E3,4.88E2,1.47E2,1.292E3,1.65E2],"tree_param":{"num_deleted":"0","num_feature":"28","num_nodes":"15","size_leaf_vector":"0"}},{"base_weights":[3.3853102E-2,9.251802E-3,5.094971E-2,6.981409E-2,-6.571317E-3,9.040628E-2,1.3298658E-2,9.069339E-2,-8.2388055E-4,1.1311354E-2,-8.405517E-2,1.4500482E-1,5.1131442E-2,5.8898073E-2,-4.0596876E-2],"categories":[],"categories_nodes":[],"categories_segments":[],"categories_sizes":[],"default_left":[1,1,1,1,1,1,1,0,0,0,0,0,0,0,0],"id":15,"left_children":[1,3,5,7,9,11,13,-1,-1,-1,-1,-1,-1,-1,-1],"loss_changes":[3.8981453E1,3.641746E1,8.123192E1,1.1610573E1,4.175148E1,5.724565E1,6.877205E1,0E0,0E0,0E0,0E0,0E0,0E0,0E0,0E0],"parents":[2147483647,0,0,1,1,2,2,3,3,4,4,5,5,6,6],"right_children":[2,4,6,8,10,12,14,-1,-1,-1,-1,-1,-1,-1,-1],"split_conditions":[5E-1,1.55E1,5E-1,4.5E0,5E-1,1.425E2,3.85E1,1.8138679E-2,-1.6477611E-4,2.2622708E-3,-1.6811034E-2,2.9000966E-2,1.0226289E-2,1.1779615E-2,-8.119375E-3],"split_indices":[26,18,25,23,4,20,20,0,0,0,0,0,0,0,0],"split_type":[0,0,0,0,0,0,0,0,0,0,0,0,0,0,0],"sum_hessian":[9.2681E4,3.8001E4,5.468E4,7.871E3,3.013E4,2.6699E4,2.7981E4,6.075E3,1.796E3,2.4481E4,5.649E3,1.1169E4,1.553E4,1.5157E4,1.2824E4],"tree_param":{"num_deleted":"0","num_feature":"28","num_nodes":"15","size_leaf_vector":"0"}},{"base_weights":[2.7083082E-2,3.0028565E-2,-1.00407995E-1,4.346868E-2,4.615305E-3,-2.136537E-1,-3.1421866E-2,6.367433E-2,2.0770496E-2,1.818123E-2,-5.6706656E-2,-1.0204535E-1,-4.7744367E-1,2.8082551E-3,-2.6540977E-1],"categories":[],"categories_nodes":[],"categories_segments":[],"categories_sizes":[],"default_left":[1,1,1,1,1,1,1,0,0,0,0,0,0,0,0],"id":16,"left_children":[1,3,5,7,9,11,13,-1,-1,-1,-1,-1,-1,-1,-1],"loss_changes":[3.480789E1,3.094149E1,1.6344826E1,2.7173805E1,2.6071148E1,2.326482E1,1.043078E1,0E0,0E0,0E0,0E0,0E0,0E0,0E0,0E0],"parents":[2147483647,0,0,1,1,2,2,3,3,4,4,5,5,6,6],"right_children":[2,4,6,8,10,12,14,-1,-1,-1,-1,-1,-1,-1,-1],"split_conditions":[5E-1,6.95E1,2.5E0,5E-1,5E-1,5E-1,2.035E2,1.2734867E-2,4.154099E-3,3.6362463E-3,-1.13413315E-2,-2.040907E-2,-9.5488735E-2,5.61651E-4,-5.3081956E-2],"split_indices":[15,18,20,27,4,27,20,0,0,0,0,0,0,0,0],"split_type":[0,0,0,0,0,0,0,0,0,0,0,0,0,0,0],"sum_hessian":[9.2681E4,9.0589E4,2.092E3,5.9252E4,3.1337E4,7.91E2,1.301E3,3.1346E4,2.7906E4,2.5661E4,5.676E3,5.57E2,2.34E2,1.136E3,1.65E2],"tree_param":{"num_deleted":"0","num_feature":"28","num_nodes":"15","size_leaf_vector":"0"}},{"base_weights":[2.1664403E-2,1.7795168E-2,1.077525E-1,3.4850363E-2,-1.9964443E-3,-1.6341104E-1,1.5002634E-1,-1.6130876E-3,6.328727E-2,-2.3008269E-1,8.602708E-3,2.7653062E-1,-2.1621343E-1,1.803515E-1,-7.419783E-3],"categories":[],"categories_nodes":[],"categories_segments":[],"categories_sizes":[],"default_left":[1,1,1,1,1,1,1,0,0,0,0,0,0,0,0],"id":17,"left_children":[1,3,5,7,9,11,13,-1,-1,-1,-1,-1,-1,-1,-1],"loss_changes":[3.0869694E1,2.993981E1,4.5723724E1,4.9400692E1,9.925659E1,1.2574118E1,1.6470078E1,0E0,0E0,0E0,0E0,0E0,0E0,0E0,0E0],"parents":[2147483647,0,0,1,1,2,2,3,3,4,4,5,5,6,6],"right_children":[2,4,6,8,10,12,14,-1,-1,-1,-1,-1,-1,-1,-1],"split_conditions":[5E-1,5E-1,4.5E0,5E-1,5E-1,5E-1,3.5E0,-3.2261753E-4,1.2657455E-2,-4.601654E-2,1.7205415E-3,5.5306125E-2,-4.324269E-2,3.60703E-2,-1.4839567E-3],"split_indices":[11,27,20,23,20,27,25,0,0,0,0,0,0,0,0],"split_type":[0,0,0,0,0,0,0,0,0,0,0,0,0,0,0],"sum_hessian":[9.2681E4,8.8696E4,3.985E3,4.7641E4,4.1055E4,5.37E2,3.448E3,2.0875E4,2.6766E4,1.822E3,3.9233E4,5.7E1,4.8E2,2.891E3,5.57E2],"tree_param":{"num_deleted":"0","num_feature":"28","num_nodes":"15","size_leaf_vector":"0"}},{"base_weights":[1.7331716E-2,1.3187865E-2,9.8717526E-2,6.425731E-3,6.2489968E-2,3.6020613E-1,7.485353E-2,2.1069964E-2,-4.4756968E-2,7.355897E-2,-2.0091835E-2,1.3960001E-1,4.522567E-1,1.5502854E-1,4.127161E-3],"categories":[],"categories_nodes":[],"categories_segments":[],"categories_sizes":[],"default_left":[1,1,1,1,1,1,1,0,0,0,0,0,0,0,0],"id":18,"left_children":[1,3,5,7,9,11,13,-1,-1,-1,-1,-1,-1,-1,-1],"loss_changes":[3.1255564E1,2.9402023E1,2.7987225E1,5.813269E1,9.725216E0,7.543396E0,2.3340096E1,0E0,0E0,0E0,0E0,0E0,0E0,0E0,0E0],"parents":[2147483647,0,0,1,1,2,2,3,3,4,4,5,5,6,6],"right_children":[2,4,6,8,10,12,14,-1,-1,-1,-1,-1,-1,-1,-1],"split_conditions":[5E-1,5E-1,5E-1,5E-1,5E-1,2.25E1,3.5E0,4.213993E-3,-8.951394E-3,1.4711794E-2,-4.0183673E-3,2.7920002E-2,9.0451345E-2,3.1005709E-2,8.2543225E-4],"split_indices":[13,9,20,24,6,19,26,0,0,0,0,0,0,0,0],"split_type":[0,0,0,0,0,0,0,0,0,0,0,0,0,0,0],"sum_hessian":[9.2681E4,8.8192E4,4.489E3,7.7556E4,1.0636E4,3.74E2,4.115E3,6.0303E4,1.7253E4,9.379E3,1.257E3,1.11E2,2.63E2,1.928E3,2.187E3],"tree_param":{"num_deleted":"0","num_feature":"28","num_nodes":"15","size_leaf_vector":"0"}},{"base_weights":[1.386737E-2,1.02402605E-2,9.457024E-2,5.1064104E-2,2.933466E-3,-1.0633541E-1,1.3224964E-1,5.7482928E-2,-1.403664E-1,-3.8468582E-3,5.104973E-2,-1.974404E-2,-3.499268E-1,1.5282452E-1,-2.242197E-2],"categories":[],"categories_nodes":[],"categories_segments":[],"categories_sizes":[],"default_left":[1,1,1,1,1,1,1,0,0,0,0,0,0,0,0],"id":19,"left_children":[1,3,5,7,9,11,13,-1,-1,-1,-1,-1,-1,-1,-1],"loss_changes":[2.71286E1,2.6457436E1,3.0192421E1,1.6555164E1,2.4544607E1,1.3284462E1,1.0687904E1,0E0,0E0,0E0,0E0,0E0,0E0,0E0,0E0],"parents":[2147483647,0,0,1,1,2,2,3,3,4,4,5,5,6,6],"right_children":[2,4,6,8,10,12,14,-1,-1,-1,-1,-1,-1,-1,-1],"split_conditions":[5E-1,1.35E1,5.5E0,2.15E1,5E-1,8.5E0,5.5E0,1.1496586E-2,-2.8073281E-2,-7.6937163E-4,1.0209947E-2,-3.948808E-3,-6.998536E-2,3.0564904E-2,-4.484394E-3],"split_indices":[11,19,20,18,9,21,24,0,0,0,0,0,0,0,0],"split_type":[0,0,0,0,0,0,0,0,0,0,0,0,0,0,0],"sum_hessian":[9.2681E4,8.8696E4,3.985E3,1.3464E4,7.5232E4,6.29E2,3.356E3,1.3028E4,4.36E2,6.5941E4,9.291E3,4.65E2,1.64E2,2.962E3,3.94E2],"tree_param":{"num_deleted":"0","num_feature":"28","num_nodes":"15","size_leaf_vector":"0"}},{"base_weights":[1.1093196E-2,2.4146179E-2,-8.929291E-3,7.514527E-2,1.6284784E-2,-3.6763996E-2,1.13891475E-2,7.061533E-2,3.2105154E-1,1.2411019E-2,9.0184495E-2,-2.7478863E-2,-1.9288598E-1,-5.1399864E-2,3.377258E-2],"categories":[],"categories_nodes":[],"categories_segments":[],"categories_sizes":[],"default_left":[1,1,1,1,1,1,1,0,0,0,0,0,0,0,0],"id":20,"left_children":[1,3,5,7,9,11,13,-1,-1,-1,-1,-1,-1,-1,-1],"loss_changes":[2.4223047E1,2.2492844E1,2.0687023E1,8.319771E0,1.3915454E1,2.2367264E1,2.971885E1,0E0,0E0,0E0,0E0,0E0,0E0,0E0,0E0],"parents":[2147483647,0,0,1,1,2,2,3,3,4,4,5,5,6,6],"right_children":[2,4,6,8,10,12,14,-1,-1,-1,-1,-1,-1,-1,-1],"split_conditions":[6.915E1,6.5E0,9.55E1,2.55E1,5E-1,6.5E0,3.5E0,1.4123066E-2,6.421031E-2,2.4822038E-3,1.80369E-2,-5.4957727E-3,-3.8577195E-2,-1.0279973E-2,6.754516E-3],"split_indices":[17,18,19,26,13,22,20,0,0,0,0,0,0,0,0],"split_type":[0,0,0,0,0,0,0,0,0,0,0,0,0,0,0],"sum_hessian":[9.2681E4,5.6105E4,3.6576E4,7.492E3,4.8613E4,1.5433E4,2.1143E4,7.358E3,1.34E2,4.6193E4,2.42E3,1.4568E4,8.65E2,5.556E3,1.5587E4],"tree_param":{"num_deleted":"0","num_feature":"28","num_nodes":"15","size_leaf_vector":"0"}},{"base_weights":[8.875239E-3,1.18003655E-2,-7.286683E-2,1.0752565E-2,2.2866389E-1,-2.4308512E-2,-1.2905468E-1,1.3004621E-2,-8.6030565E-2,3.527231E-1,-3.9358087E-2,-8.311157E-2,6.0385235E-2,-9.244188E-2,-3.4097436E-1],"categories":[],"categories_nodes":[],"categories_segments":[],"categories_sizes":[],"default_left":[1,1,1,1,1,1,1,0,0,0,0,0,0,0,0],"id":21,"left_children":[1,3,5,7,9,11,13,-1,-1,-1,-1,-1,-1,-1,-1],"loss_changes":[2.2161888E1,2.0329815E1,8.733078E0,1.9411245E1,1.4321064E1,8.568069E0,1.1478041E1,0E0,0E0,0E0,0E0,0E0,0E0,0E0,0E0],"parents":[2147483647,0,0,1,1,2,2,3,3,4,4,5,5,6,6],"right_children":[2,4,6,8,10,12,14,-1,-1,-1,-1,-1,-1,-1,-1],"split_conditions":[1.725E2,1.075E2,1.075E2,5E-1,8.5E0,6.5E0,1.5E0,2.600924E-3,-1.7206114E-2,7.054462E-2,-7.871618E-3,-1.6622314E-2,1.20770475E-2,-1.8488375E-2,-6.819487E-2],"split_indices":[18,23,20,15,24,23,25,0,0,0,0,0,0,0,0],"split_type":[0,0,0,0,0,0,0,0,0,0,0,0,0,0,0],"sum_hessian":[9.2681E4,8.948E4,3.201E3,8.9051E4,4.29E2,1.718E3,1.483E3,8.7027E4,2.024E3,2.93E2,1.36E2,1.014E3,7.04E2,1.266E3,2.17E2],"tree_param":{"num_deleted":"0","num_feature":"28","num_nodes":"15","size_leaf_vector":"0"}},{"base_weights":[7.0996466E-3,1.2098563E-2,-3.7704203E-2,1.7823864E-2,-2.701825E-2,-1.2448527E-2,-7.962903E-2,1.5624302E-2,2.4806656E-1,2.4798378E-2,-1.20182164E-1,-5.879839E-2,8.675291E-3,-1.3392083E-2,-1.2560397E-1],"categories":[],"categories_nodes":[],"categories_segments":[],"categories_sizes":[],"default_left":[1,1,1,1,1,1,1,0,0,0,0,0,0,0,0],"id":22,"left_children":[1,3,5,7,9,11,13,-1,-1,-1,-1,-1,-1,-1,-1],"loss_changes":[2.0758642E1,1.8674034E1,9.84941E0,3.6830845E1,5.1397465E1,5.686361E0,1.0647793E1,0E0,0E0,0E0,0E0,0E0,0E0,0E0,0E0],"parents":[2147483647,0,0,1,1,2,2,3,3,4,4,5,5,6,6],"right_children":[2,4,6,8,10,12,14,-1,-1,-1,-1,-1,-1,-1,-1],"split_conditions":[5E-1,4.5E0,2.055E2,3.5E0,1.625E2,3.45E1,5.685E1,3.1248606E-3,4.9613312E-2,4.959676E-3,-2.4036434E-2,-1.1759679E-2,1.7350583E-3,-2.6784167E-3,-2.5120795E-2],"split_indices":[10,21,20,27,20,20,17,0,0,0,0,0,0,0,0],"split_type":[0,0,0,0,0,0,0,0,0,0,0,0,0,0,0],"sum_hessian":[9.2681E4,8.3379E4,9.302E3,7.2734E4,1.0645E4,5.806E3,3.496E3,7.2047E4,6.87E2,6.841E3,3.804E3,1.817E3,3.989E3,1.433E3,2.063E3],"tree_param":{"num_deleted":"0","num_feature":"28","num_nodes":"15","size_leaf_vector":"0"}},{"base_weights":[5.6796796E-3,-1.114285E-2,1.7370833E-2,-1.747896E-2,7.081932E-2,5.240533E-2,-1.2332218E-2,6.7924894E-2,-2.356852E-2,1.052439E-1,-1.5288076E-1,2.948519E-1,3.9709996E-2,1.377504E-2,-1.108964E-1],"categories":[],"categories_nodes":[],"categories_segments":[],"categories_sizes":[],"default_left":[1,1,1,1,1,1,1,0,0,0,0,0,0,0,0],"id":23,"left_children":[1,3,5,7,9,11,13,-1,-1,-1,-1,-1,-1,-1,-1],"loss_changes":[1.8228485E1,1.9736835E1,5.6903755E1,1.8348083E1,2.1020878E1,7.7209015E1,7.615225E1,0E0,0E0,0E0,0E0,0E0,0E0,0E0,0E0],"parents":[2147483647,0,0,1,1,2,2,3,3,4,4,5,5,6,6],"right_children":[2,4,6,8,10,12,14,-1,-1,-1,-1,-1,-1,-1,-1],"split_conditions":[5E-1,5E-1,5E-1,3.5E0,1.65E1,5E-1,1.885E2,1.3584979E-2,-4.7137043E-3,2.104878E-2,-3.0576153E-2,5.897038E-2,7.9419995E-3,2.7550082E-3,-2.2179281E-2],"split_indices":[26,6,24,19,23,20,20,0,0,0,0,0,0,0,0],"split_type":[0,0,0,0,0,0,0,0,0,0,0,0,0,0,0],"sum_hessian":[9.2681E4,3.8001E4,5.468E4,3.5275E4,2.726E3,2.5088E4,2.9592E4,2.347E3,3.2928E4,2.363E3,3.63E2,1.247E3,2.3841E4,2.3396E4,6.196E3],"tree_param":{"num_deleted":"0","num_feature":"28","num_nodes":"15","size_leaf_vector":"0"}},{"base_weights":[4.5443317E-3,-1.6328279E-2,1.2285692E-2,2.1402491E-3,-1.0679478E-1,3.0629357E-2,-1.6077593E-2,-1.6067378E-2,2.7512965E-1,-3.2158262E-1,6.431294E-2,5.2448552E-2,-2.0245877E-3,2.5847144E-2,-9.685124E-2],"categories":[],"categories_nodes":[],"categories_segments":[],"categories_sizes":[],"default_left":[1,1,1,1,1,1,1,0,0,0,0,0,0,0,0],"id":24,"left_children":[1,3,5,7,9,11,13,-1,-1,-1,-1,-1,-1,-1,-1],"loss_changes":[1.4976052E1,4.1895493E1,3.517623E1,1.0351675E2,1.5626434E2,2.9251965E1,8.992313E1,0E0,0E0,0E0,0E0,0E0,0E0,0E0,0E0],"parents":[2147483647,0,0,1,1,2,2,3,3,4,4,5,5,6,6],"right_children":[2,4,6,8,10,12,14,-1,-1,-1,-1,-1,-1,-1,-1],"split_conditions":[3.5E0,5E-1,4.5E0,5E-1,1.5E0,3.515E2,1.645E2,-3.2134757E-3,5.502593E-2,-6.4316526E-2,1.2862588E-2,1.0489711E-2,-4.0491755E-4,5.169429E-3,-1.9370249E-2],"split_indices":[20,27,26,23,27,20,20,0,0,0,0,0,0,0,0],"split_type":[0,0,0,0,0,0,0,0,0,0,0,0,0,0,0],"sum_hessian":[9.2681E4,2.5074E4,6.7607E4,2.0824E4,4.25E3,4.1055E4,2.6552E4,1.9523E4,1.301E3,1.884E3,2.366E3,2.461E4,1.6445E4,1.748E4,9.072E3],"tree_param":{"num_deleted":"0","num_feature":"28","num_nodes":"15","size_leaf_vector":"0"}},{"base_weights":[3.6354384E-3,8.789663E-3,-2.680178E-2,7.080991E-2,6.093333E-3,-3.0500304E-2,2.4067287E-1,7.29131E-2,-1.0613881E0,3.4264573E-3,6.623568E-2,-2.2314267E-2,-1.6504079E-1,2.6614058E-1,-6.925239E-1],"categories":[],"categories_nodes":[],"categories_segments":[],"categories_sizes":[],"default_left":[1,1,1,1,1,1,1,0,0,0,0,0,0,0,0],"id":25,"left_children":[1,3,5,7,9,11,13,-1,-1,-1,-1,-1,-1,-1,-1],"loss_changes":[1.4540292E1,1.3254102E1,1.3286871E1,7.9561787E0,1.2183148E1,1.4577716E1,4.5751753E0,0E0,0E0,0E0,0E0,0E0,0E0,0E0,0E0],"parents":[2147483647,0,0,1,1,2,2,3,3,4,4,5,5,6,6],"right_children":[2,4,6,8,10,12,14,-1,-1,-1,-1,-1,-1,-1,-1],"split_conditions":[8.285E1,1.5E0,5E-1,2.55E1,5E-1,1.805E2,1.75E1,1.4582621E-2,-2.1227764E-1,6.852915E-4,1.3247135E-2,-4.4628535E-3,-3.300816E-2,5.3228118E-2,-1.3850479E-1],"split_indices":[17,18,3,22,11,18,26,0,0,0,0,0,0,0,0],"split_type":[0,0,0,0,0,0,0,0,0,0,0,0,0,0,0],"sum_hessian":[9.2681E4,7.926E4,1.3421E4,3.301E3,7.5959E4,1.3239E4,1.82E2,3.296E3,5E0,7.2735E4,3.224E3,1.2481E4,7.58E2,1.78E2,4E0],"tree_param":{"num_deleted":"0","num_feature":"28","num_nodes":"15","size_leaf_vector":"0"}},{"base_weights":[2.9043471E-3,1.0775035E-4,5.7832263E-2,-2.4206577E-2,9.620196E-3,1.7688574E-1,1.0503382E-2,2.1076128E-3,-1.6604297E-1,6.4365804E-2,1.1520076E-3,7.700916E-3,1.884854E-1,8.482886E-2,-5.0183423E-2],"categories":[],"categories_nodes":[],"categories_segments":[],"categories_sizes":[],"default_left":[1,1,1,1,1,1,1,0,0,0,0,0,0,0,0],"id":26,"left_children":[1,3,5,7,9,11,13,-1,-1,-1,-1,-1,-1,-1,-1],"loss_changes":[1.42370205E1,2.0398373E1,2.5298557E1,9.2566185E1,2.9388752E1,2.5047455E0,1.4503001E1,0E0,0E0,0E0,0E0,0E0,0E0,0E0,0E0],"parents":[2147483647,0,0,1,1,2,2,3,3,4,4,5,5,6,6],"right_children":[2,4,6,8,10,12,14,-1,-1,-1,-1,-1,-1,-1,-1],"split_conditions":[5E-1,5.5E0,3.5E0,5E-1,8.5E0,5E-1,3.5E0,4.2152256E-4,-3.3208594E-2,1.2873161E-2,2.3040152E-4,1.5401832E-3,3.769708E-2,1.6965773E-2,-1.0036685E-2],"split_indices":[13,20,20,27,20,27,26,0,0,0,0,0,0,0,0],"split_type":[0,0,0,0,0,0,0,0,0,0,0,0,0,0,0],"sum_hessian":[9.2681E4,8.8192E4,4.489E3,2.48E4,6.3392E4,1.276E3,3.213E3,2.092E4,3.88E3,8.491E3,5.4901E4,8.2E1,1.194E3,1.444E3,1.769E3],"tree_param":{"num_deleted":"0","num_feature":"28","num_nodes":"15","size_leaf_vector":"0"}},{"base_weights":[2.3238035E-3,7.1248543E-3,-2.7201584E-2,1.1285034E-2,-4.5330293E-2,-5.4670263E-2,3.610961E-2,-8.144904E-2,1.411192E-2,1.2947215E-2,-8.784897E-2,1.6124102E-1,-6.8057165E-2,7.4686505E-2,-2.7344553E-2],"categories":[],"categories_nodes":[],"categories_segments":[],"categories_sizes":[],"default_left":[1,1,1,1,1,1,1,0,0,0,0,0,0,0,0],"id":27,"left_children":[1,3,5,7,9,11,13,-1,-1,-1,-1,-1,-1,-1,-1],"loss_changes":[1.3138201E1,1.739738E1,2.2546343E1,1.9364521E1,1.4517296E1,2.6145695E1,9.605913E0,0E0,0E0,0E0,0E0,0E0,0E0,0E0,0E0],"parents":[2147483647,0,0,1,1,2,2,3,3,4,4,5,5,6,6],"right_children":[2,4,6,8,10,12,14,-1,-1,-1,-1,-1,-1,-1,-1],"split_conditions":[5E-1,6.5E0,2.5E0,1.5E0,1.15E1,7.5E0,1.925E2,-1.6289808E-2,2.822384E-3,2.589443E-3,-1.7569793E-2,3.2248206E-2,-1.3611433E-2,1.4937301E-2,-5.4689106E-3],"split_indices":[4,21,16,16,20,18,20,0,0,0,0,0,0,0,0],"split_type":[0,0,0,0,0,0,0,0,0,0,0,0,0,0,0],"sum_hessian":[9.2681E4,7.9719E4,1.2962E4,7.3862E4,5.857E3,9.04E3,3.922E3,2.184E3,7.1678E4,2.471E3,3.386E3,5.27E2,8.513E3,2.439E3,1.483E3],"tree_param":{"num_deleted":"0","num_feature":"28","num_nodes":"15","size_leaf_vector":"0"}},{"base_weights":[1.8590275E-3,6.8165164E-4,1.1492053E-1,1.0419769E-2,-1.2536924E-2,1.3115826E-1,-4.0540606E-1,4.20114E-2,5.4349075E-3,-1.4971868E-2,1.7297843E-1,1.433509E-1,-4.872552E-1,-7.141912E-1,1.6737626E-1],"categories":[],"categories_nodes":[],"categories_segments":[],"categories_sizes":[],"default_left":[1,1,1,1,1,1,1,0,0,0,0,0,0,0,0],"id":28,"left_children":[1,3,5,7,9,11,13,-1,-1,-1,-1,-1,-1,-1,-1],"loss_changes":[1.2337379E1,1.1807782E1,8.134223E0,8.317532E0,1.7580051E1,7.0749893E0,5.307952E0,0E0,0E0,0E0,0E0,0E0,0E0,0E0,0E0],"parents":[2147483647,0,0,1,1,2,2,3,3,4,4,5,5,6,6],"right_children":[2,4,6,8,10,12,14,-1,-1,-1,-1,-1,-1,-1,-1],"split_conditions":[5E-1,6.715E1,2.35E1,6.5E0,5E-1,5E-1,1E1,8.40228E-3,1.0869815E-3,-2.9943737E-3,3.4595687E-2,2.867018E-2,-9.745104E-2,-1.4283824E-1,3.3475254E-2],"split_indices":[1,17,23,18,3,15,26,0,0,0,0,0,0,0,0],"split_type":[0,0,0,0,0,0,0,0,0,0,0,0,0,0,0],"sum_hessian":[9.2681E4,9.1727E4,9.54E2,5.2817E4,3.891E4,9.26E2,2.8E1,7.197E3,4.562E4,3.8407E4,5.03E2,9.09E2,1.7E1,1.8E1,1E1],"tree_param":{"num_deleted":"0","num_feature":"28","num_nodes":"15","size_leaf_vector":"0"}},{"base_weights":[1.4854837E-3,1.5097001E-4,9.2994E-2,-2.392791E-3,5.1495824E-2,1.3277983E-2,2.1204576E-1,9.730149E-3,-1.6513778E-2,1.4569491E-1,1.3116242E-2,-1.892717E-2,2.516723E-1,2.2987464E-1,-1.7508562E-1],"categories":[],"categories_nodes":[],"categories_segments":[],"categories_sizes":[],"default_left":[1,1,1,1,1,1,1,0,0,0,0,0,0,0,0],"id":29,"left_children":[1,3,5,7,9,11,13,-1,-1,-1,-1,-1,-1,-1,-1],"loss_changes":[1.1318275E1,1.1931439E1,1.2639639E1,1.4900419E1,1.55877E1,6.141595E0,3.7354107E0,0E0,0E0,0E0,0E0,0E0,0E0,0E0,0E0],"parents":[2147483647,0,0,1,1,2,2,3,3,4,4,5,5,6,6],"right_children":[2,4,6,8,10,12,14,-1,-1,-1,-1,-1,-1,-1,-1],"split_conditions":[5E-1,5E-1,2.26E2,5E-1,3.5E0,2.165E2,2.5E0,1.9460298E-3,-3.3027555E-3,2.9138982E-2,2.6232486E-3,-3.785434E-3,5.033446E-2,4.597493E-2,-3.5017125E-2],"split_indices":[2,13,20,27,20,19,27,0,0,0,0,0,0,0,0],"split_type":[0,0,0,0,0,0,0,0,0,0,0,0,0,0,0],"sum_hessian":[9.2681E4,9.135E4,1.331E3,8.7039E4,4.311E3,7.98E2,5.33E2,4.6833E4,4.0206E4,1.247E3,3.064E3,7.04E2,9.4E1,5.1E2,2.3E1],"tree_param":{"num_deleted":"0","num_feature":"28","num_nodes":"15","size_leaf_vector":"0"}},{"base_weights":[1.1895795E-3,-1.124344E-3,5.351258E-2,-1.1731597E-2,1.1245588E-2,7.047076E-2,-8.62762E-2,1.1912678E-2,-2.7021443E-2,-2.26332E-2,2.4016706E-2,9.003555E-2,-1.0643719E-1,-1.0714556E-1,4.4854754E-1],"categories":[],"categories_nodes":[],"categories_segments":[],"categories_sizes":[],"default_left":[1,1,1,1,1,1,1,0,0,0,0,0,0,0,0],"id":30,"left_children":[1,3,5,7,9,11,13,-1,-1,-1,-1,-1,-1,-1,-1],"loss_changes":[1.1221238E1,1.164621E1,9.312229E0,1.7275204E1,1.7729395E1,1.2129738E1,4.8035126E0,0E0,0E0,0E0,0E0,0E0,0E0,0E0,0E0],"parents":[2147483647,0,0,1,1,2,2,3,3,4,4,5,5,6,6],"right_children":[2,4,6,8,10,12,14,-1,-1,-1,-1,-1,-1,-1,-1],"split_conditions":[5E-1,9.35E1,1.435E2,1.55E1,2.5E0,4.5E0,4.5E0,2.3825357E-3,-5.404289E-3,-4.5266403E-3,4.8033413E-3,1.800711E-2,-2.128744E-2,-2.1429112E-2,8.970951E-2],"split_indices":[14,19,20,18,20,24,24,0,0,0,0,0,0,0,0],"split_type":[0,0,0,0,0,0,0,0,0,0,0,0,0,0,0],"sum_hessian":[9.2681E4,8.8757E4,3.924E3,4.7783E4,4.0974E4,3.5E3,4.24E2,1.8765E4,2.9018E4,1.1217E4,2.9757E4,3.152E3,3.48E2,4.09E2,1.5E1],"tree_param":{"num_deleted":"0","num_feature":"28","num_nodes":"15","size_leaf_vector":"0"}},{"base_weights":[9.524649E-4,2.5889033E-3,-6.9870405E-2,6.307422E-3,-2.9902583E-2,-1.1218969E-1,4.9349554E-2,1.8154958E-2,-6.1046407E-3,-3.0356625E-3,-5.0184365E-2,-5.93281E-2,-2.3513709E-1,8.901874E-2,-1.3392568E-1],"categories":[],"categories_nodes":[],"categories_segments":[],"categories_sizes":[],"default_left":[1,1,1,1,1,1,1,0,0,0,0,0,0,0,0],"id":31,"left_children":[1,3,5,7,9,11,13,-1,-1,-1,-1,-1,-1,-1,-1],"loss_changes":[1.0741831E1,1.0945353E1,1.05674715E1,1.1953754E1,5.069213E0,1.0025814E1,4.007199E0,0E0,0E0,0E0,0E0,0E0,0E0,0E0,0E0],"parents":[2147483647,0,0,1,1,2,2,3,3,4,4,5,5,6,6],"right_children":[2,4,6,8,10,12,14,-1,-1,-1,-1,-1,-1,-1,-1],"split_conditions":[5E-1,5E-1,7.5E0,5E-1,5.685E1,5E-1,6.95E1,3.6309918E-3,-1.2209282E-3,-6.071325E-4,-1.0036874E-2,-1.18656205E-2,-4.702742E-2,1.780375E-2,-2.6785135E-2],"split_indices":[15,10,26,22,17,27,20,0,0,0,0,0,0,0,0],"split_type":[0,0,0,0,0,0,0,0,0,0,0,0,0,0,0],"sum_hessian":[9.2681E4,9.0589E4,2.092E3,8.1287E4,9.302E3,1.544E3,5.48E2,4.1589E4,3.9698E4,4.002E3,5.3E3,1.081E3,4.63E2,4.51E2,9.7E1],"tree_param":{"num_deleted":"0","num_feature":"28","num_nodes":"15","size_leaf_vector":"0"}},{"base_weights":[7.6098833E-4,-1.4299303E-3,4.9511034E-2,6.1442214E-3,-1.9199386E-2,9.058159E-2,-4.5462377E-2,-1.13017615E-2,3.2229535E-2,-1.7870912E-2,-9.9008054E-1,-1.4082693E-2,1.0141906E-1,-3.7345532E-2,-1.0948988E0],"categories":[],"categories_nodes":[],"categories_segments":[],"categories_sizes":[],"default_left":[1,1,1,1,1,1,1,0,0,0,0,0,0,0,0],"id":32,"left_children":[1,3,5,7,9,11,13,-1,-1,-1,-1,-1,-1,-1,-1],"loss_changes":[9.899228E0,1.193777E1,1.5553556E1,2.8302197E1,3.416877E1,3.1586876E0,1.0208444E1,0E0,0E0,0E0,0E0,0E0,0E0,0E0,0E0],"parents":[2147483647,0,0,1,1,2,2,3,3,4,4,5,5,6,6],"right_children":[2,4,6,8,10,12,14,-1,-1,-1,-1,-1,-1,-1,-1],"split_conditions":[5E-1,5E-1,2.5E0,5E-1,3.68E2,4.5E0,2.15E1,-2.2603523E-3,6.445907E-3,-3.5741825E-3,-1.980161E-1,-2.8165386E-3,2.0283813E-2,-7.4691065E-3,-2.1897976E-1],"split_indices":[11,24,25,26,20,20,25,0,0,0,0,0,0,0,0],"split_type":[0,0,0,0,0,0,0,0,0,0,0,0,0,0,0],"sum_hessian":[9.2681E4,8.8696E4,3.985E3,6.2189E4,2.6507E4,2.782E3,1.203E3,3.7266E4,2.4923E4,2.6472E4,3.5E1,2.61E2,2.521E3,1.195E3,8E0],"tree_param":{"num_deleted":"0","num_feature":"28","num_nodes":"15","size_leaf_vector":"0"}},{"base_weights":[6.0351094E-4,2.550993E-3,-5.38165E-2,1.2615876E-3,9.869111E-2,-5.086073E-2,-7.1311074E-1,5.4361634E-3,-2.7305666E-2,3.6461428E-2,1.9112048E-1,7.0619094E-3,-7.974166E-2,-1.0411575E0,-8.831026E-2],"categories":[],"categories_nodes":[],"categories_segments":[],"categories_sizes":[],"default_left":[1,1,1,1,1,1,1,0,0,0,0,0,0,0,0],"id":33,"left_children":[1,3,5,7,9,11,13,-1,-1,-1,-1,-1,-1,-1,-1],"loss_changes":[9.822811E0,1.1092263E1,6.196686E0,1.0530283E1,6.8029747E0,5.335759E0,2.8001518E0,0E0,0E0,0E0,0E0,0E0,0E0,0E0,0E0],"parents":[2147483647,0,0,1,1,2,2,3,3,4,4,5,5,6,6],"right_children":[2,4,6,8,10,12,14,-1,-1,-1,-1,-1,-1,-1,-1],"split_conditions":[1.725E2,5E-1,2.97E2,5E-1,2.26E2,7.315E1,1E0,1.0872327E-3,-5.4611336E-3,7.2922856E-3,3.8224097E-2,1.4123819E-3,-1.5948331E-2,-2.082315E-1,-1.7662052E-2],"split_indices":[18,2,18,12,20,17,24,0,0,0,0,0,0,0,0],"split_type":[0,0,0,0,0,0,0,0,0,0,0,0,0,0,0],"sum_hessian":[9.2681E4,8.948E4,3.201E3,8.8297E4,1.183E3,3.188E3,1.3E1,7.704E4,1.1257E4,7.08E2,4.75E2,1.061E3,2.127E3,8E0,5E0],"tree_param":{"num_deleted":"0","num_feature":"28","num_nodes":"15","size_leaf_vector":"0"}},{"base_weights":[4.8025913E-4,-1.5314026E-5,2.154201E-1,-7.0405146E-4,1.4733997E-1,2.9090804E-1,1.7766554E-2,6.1762193E-3,-1.5472607E-2,2.2306722E-1,-3.313829E-2,-6.2465996E-1,3.017772E-1,4.9596068E-2,-5.6779516E-1],"categories":[],"categories_nodes":[],"categories_segments":[],"categories_sizes":[],"default_left":[1,1,1,1,1,1,1,0,0,0,0,0,0,0,0],"id":34,"left_children":[1,3,5,7,9,11,13,-1,-1,-1,-1,-1,-1,-1,-1],"loss_changes":[9.872365E0,9.384841E0,3.17484E0,9.352573E0,5.888467E0,1.7607288E0,1.1558087E0,0E0,0E0,0E0,0E0,0E0,0E0,0E0,0E0],"parents":[2147483647,0,0,1,1,2,2,3,3,4,4,5,5,6,6],"right_children":[2,4,6,8,10,12,14,-1,-1,-1,-1,-1,-1,-1,-1],"split_conditions":[6.62E2,1.075E2,8.63E2,4.5E0,2.25E1,1.315E2,5E-1,1.2352439E-3,-3.0945214E-3,4.4613447E-2,-6.627658E-3,-1.2493199E-1,6.0355444E-2,9.919214E-3,-1.1355903E-1],"split_indices":[19,23,19,26,22,18,7,0,0,0,0,0,0,0,0],"split_type":[0,0,0,0,0,0,0,0,0,0,0,0,0,0,0],"sum_hessian":[9.2681E4,9.2469E4,2.12E2,9.204E4,4.29E2,1.53E2,5.9E1,6.2789E4,2.9251E4,3.02E2,1.27E2,1E0,1.52E2,5.7E1,2E0],"tree_param":{"num_deleted":"0","num_feature":"28","num_nodes":"15","size_leaf_vector":"0"}},{"base_weights":[3.8250463E-4,-5.7042955E-4,9.189264E-2,6.939555E-3,-1.2713022E-2,-2.865742E-2,1.4475992E-1,1.7604807E-2,-3.8282387E-2,5.9538065E-3,-8.228915E-2,2.924294E-1,-1.2206216E-1,-2.9630741E-2,2.1015783E-1],"categories":[],"categories_nodes":[],"categories_segments":[],"categories_sizes":[],"default_left":[1,1,1,1,1,1,1,0,0,0,0,0,0,0,0],"id":35,"left_children":[1,3,5,7,9,11,13,-1,-1,-1,-1,-1,-1,-1,-1],"loss_changes":[8.082241E0,8.364863E0,6.092614E0,2.7335932E1,4.5526478E1,8.806212E0,7.582529E0,0E0,0E0,0E0,0E0,0E0,0E0,0E0,0E0],"parents":[2147483647,0,0,1,1,2,2,3,3,4,4,5,5,6,6],"right_children":[2,4,6,8,10,12,14,-1,-1,-1,-1,-1,-1,-1,-1],"split_conditions":[5E-1,2.005E2,6.65E1,5E-1,4.5E0,3.65E1,3.5E0,3.5209616E-3,-7.6564774E-3,1.1907613E-3,-1.6457831E-2,5.8485877E-2,-2.4412433E-2,-5.9261485E-3,4.2031568E-2],"split_indices":[1,20,19,12,26,17,20,0,0,0,0,0,0,0,0],"split_type":[0,0,0,0,0,0,0,0,0,0,0,0,0,0,0],"sum_hessian":[9.2681E4,9.1727E4,9.54E2,5.6675E4,3.5052E4,2.91E2,6.63E2,4.586E4,1.0815E4,2.7638E4,7.414E3,6.5E1,2.26E2,1.81E2,4.82E2],"tree_param":{"num_deleted":"0","num_feature":"28","num_nodes":"15","size_leaf_vector":"0"}},{"base_weights":[3.0664803E-4,6.044354E-3,-1.4696951E-2,-7.6959105E-3,2.3712477E-2,-2.3962725E-2,5.2700862E-2,4.934958E-3,-4.0874496E-2,2.6762791E-2,-1.356074E-1,-8.740718E-2,-1.7525177E-2,-5.0206274E-1,5.7044543E-2],"categories":[],"categories_nodes":[],"categories_segments":[],"categories_sizes":[],"default_left":[1,1,1,1,1,1,1,0,0,0,0,0,0,0,0],"id":36,"left_children":[1,3,5,7,9,11,13,-1,-1,-1,-1,-1,-1,-1,-1],"loss_changes":[7.9787683E0,1.6276182E1,1.6013014E1,1.5805713E1,1.425812E1,9.20459E0,7.5025635E0,0E0,0E0,0E0,0E0,0E0,0E0,0E0,0E0],"parents":[2147483647,0,0,1,1,2,2,3,3,4,4,5,5,6,6],"right_children":[2,4,6,8,10,12,14,-1,-1,-1,-1,-1,-1,-1,-1],"split_conditions":[7.95E1,6.95E1,3.575E2,7.15E1,3.565E2,1.5E0,8.05E1,9.869917E-4,-8.174899E-3,5.352558E-3,-2.7121482E-2,-1.7481437E-2,-3.5050355E-3,-1.0041255E-1,1.1408909E-2],"split_indices":[18,19,19,17,19,16,18,0,0,0,0,0,0,0,0],"split_type":[0,0,0,0,0,0,0,0,0,0,0,0,0,0,0],"sum_hessian":[9.2681E4,6.7043E4,2.5638E4,3.7714E4,2.9329E4,2.254E4,3.098E3,2.7316E4,1.0398E4,2.8779E4,5.5E2,2.075E3,2.0465E4,2.3E1,3.075E3],"tree_param":{"num_deleted":"0","num_feature":"28","num_nodes":"15","size_leaf_vector":"0"}},{"base_weights":[2.4350832E-4,1.5884893E-3,-5.7965163E-2,6.235555E-4,9.479809E-2,-8.915715E-2,5.5785343E-2,2.3553686E-3,-4.976692E-2,1.6515164E-1,-5.3334096E-3,-4.660309E-2,-1.7666434E-1,1.0725683E-1,-1.12636246E-1],"categories":[],"categories_nodes":[],"categories_segments":[],"categories_sizes":[],"default_left":[1,1,1,1,1,1,1,0,0,0,0,0,0,0,0],"id":37,"left_children":[1,3,5,7,9,11,13,-1,-1,-1,-1,-1,-1,-1,-1],"loss_changes":[7.256159E0,8.14771E0,7.432861E0,7.824769E0,6.5398617E0,6.109045E0,3.9259095E0,0E0,0E0,0E0,0E0,0E0,0E0,0E0,0E0],"parents":[2147483647,0,0,1,1,2,2,3,3,4,4,5,5,6,6],"right_children":[2,4,6,8,10,12,14,-1,-1,-1,-1,-1,-1,-1,-1],"split_conditions":[5E-1,5E-1,8.5E0,1.725E2,5E-1,5E-1,4.25E1,4.7107373E-4,-9.953384E-3,3.3030327E-2,-1.0666819E-3,-9.320619E-3,-3.533287E-2,2.1451367E-2,-2.252725E-2],"split_indices":[15,3,26,18,27,27,20,0,0,0,0,0,0,0,0],"split_type":[0,0,0,0,0,0,0,0,0,0,0,0,0,0,0],"sum_hessian":[9.2681E4,9.0589E4,2.092E3,8.9662E4,9.27E2,1.642E3,4.5E2,8.6684E4,2.978E3,5.44E2,3.83E2,1.106E3,5.36E2,3.45E2,1.05E2],"tree_param":{"num_deleted":"0","num_feature":"28","num_nodes":"15","size_leaf_vector":"0"}},{"base_weights":[1.9446864E-4,3.0731983E-3,-2.5606254E-2,1.6829036E-3,6.716761E-2,-1.6366526E-2,-7.854232E-2,5.8017033E-3,-2.5062403E-2,1.4876841E-1,1.3500678E-2,-2.5123531E-2,7.137937E-2,-1.0755071E-1,8.0238506E-2],"categories":[],"categories_nodes":[],"categories_segments":[],"categories_sizes":[],"default_left":[1,1,1,1,1,1,1,0,0,0,0,0,0,0,0],"id":38,"left_children":[1,3,5,7,9,11,13,-1,-1,-1,-1,-1,-1,-1,-1],"loss_changes":[6.883907E0,7.429885E0,4.548792E0,8.990347E0,7.749764E0,6.089501E0,6.3767347E0,0E0,0E0,0E0,0E0,0E0,0E0,0E0,0E0],"parents":[2147483647,0,0,1,1,2,2,3,3,4,4,5,5,6,6],"right_children":[2,4,6,8,10,12,14,-1,-1,-1,-1,-1,-1,-1,-1],"split_conditions":[5E-1,7.145E2,3.365E2,5E-1,3.5E0,2.795E2,2.185E2,1.1603407E-3,-5.0124805E-3,2.9753683E-2,2.7001358E-3,-5.0247065E-3,1.4275874E-2,-2.1510143E-2,1.6047701E-2],"split_indices":[10,20,20,4,23,20,19,0,0,0,0,0,0,0,0],"split_type":[0,0,0,0,0,0,0,0,0,0,0,0,0,0,0],"sum_hessian":[9.2681E4,8.3379E4,9.302E3,8.161E4,1.769E3,7.921E3,1.381E3,7.072E4,1.089E4,7.01E2,1.068E3,7.203E3,7.18E2,1.168E3,2.13E2],"tree_param":{"num_deleted":"0","num_feature":"28","num_nodes":"15","size_leaf_vector":"0"}},{"base_weights":[1.5596382E-4,-1.5751012E-3,3.9299455E-2,7.0731416E-3,-1.0577063E-2,4.1452695E-2,-7.92042E-1,-1.4314521E-2,2.7474558E-2,1.4957312E-2,-2.4066662E-2,5.5911485E-2,-6.5429725E-2,-1.0688175E0,-2.792615E-1],"categories":[],"categories_nodes":[],"categories_segments":[],"categories_sizes":[],"default_left":[1,1,1,1,1,1,1,0,0,0,0,0,0,0,0],"id":39,"left_children":[1,3,5,7,9,11,13,-1,-1,-1,-1,-1,-1,-1,-1],"loss_changes":[6.280213E0,6.910018E0,7.065816E0,1.9753172E1,1.4980564E1,6.0564494E0,1.0894608E0,0E0,0E0,0E0,0E0,0E0,0E0,0E0,0E0],"parents":[2147483647,0,0,1,1,2,2,3,3,4,4,5,5,6,6],"right_children":[2,4,6,8,10,12,14,-1,-1,-1,-1,-1,-1,-1,-1],"split_conditions":[5E-1,5E-1,1.55E1,5E-1,1.45E1,1.335E2,2.75E1,-2.8629042E-3,5.4949117E-3,2.9914624E-3,-4.8133326E-3,1.1182297E-2,-1.30859455E-2,-2.137635E-1,-5.58523E-2],"split_indices":[14,22,24,23,20,20,21,0,0,0,0,0,0,0,0],"split_type":[0,0,0,0,0,0,0,0,0,0,0,0,0,0,0],"sum_hessian":[9.2681E4,8.8757E4,3.924E3,4.5268E4,4.3489E4,3.915E3,9E0,2.21E4,2.3168E4,1.5033E4,2.8456E4,3.449E3,4.66E2,5E0,4E0],"tree_param":{"num_deleted":"0","num_feature":"28","num_nodes":"15","size_leaf_vector":"0"}},{"base_weights":[1.2126009E-4,-2.6931247E-4,1.6264449E-1,5.921276E-3,-1.0275014E-2,2.1690665E-1,1.2299716E-2,1.3668463E-2,-2.6351163E-2,4.0088664E-3,-6.393201E-2,2.3557045E-1,-3.0130333E-1,-1.7485483E-1,1.0370171E-1],"categories":[],"categories_nodes":[],"categories_segments":[],"categories_sizes":[],"default_left":[1,1,1,1,1,1,1,0,0,0,0,0,0,0,0],"id":40,"left_children":[1,3,5,7,9,11,13,-1,-1,-1,-1,-1,-1,-1,-1],"loss_changes":[5.8832517E0,5.7272286E0,1.8095131E0,1.4281909E1,2.7086866E1,1.6636057E0,1.0515585E0,0E0,0E0,0E0,0E0,0E0,0E0,0E0,0E0],"parents":[2147483647,0,0,1,1,2,2,3,3,4,4,5,5,6,6],"right_children":[2,4,6,8,10,12,14,-1,-1,-1,-1,-1,-1,-1,-1],"split_conditions":[6.6E2,2.005E2,8.63E2,5E-1,4.5E0,5E-1,1.755E2,2.7336925E-3,-5.270233E-3,8.017733E-4,-1.2786402E-2,4.711409E-2,-6.0260665E-2,-3.4970965E-2,2.0740343E-2],"split_indices":[19,20,19,12,26,0,18,0,0,0,0,0,0,0,0],"split_type":[0,0,0,0,0,0,0,0,0,0,0,0,0,0,0],"sum_hessian":[9.2681E4,9.246E4,2.21E2,5.712E4,3.534E4,1.62E2,5.9E1,4.6063E4,1.1057E4,2.7911E4,7.429E3,1.57E2,5E0,1.9E1,4E1],"tree_param":{"num_deleted":"0","num_feature":"28","num_nodes":"15","size_leaf_vector":"0"}},{"base_weights":[9.6449716E-5,7.754824E-3,-8.049793E-3,1.3763131E-2,-3.9878394E-2,-1.7265055E-1,-9.69399E-4,8.804979E-3,6.992469E-2,-3.481414E-3,-1.0268849E-1,-7.341235E-1,1.374568E-1,2.387663E-2,-1.5971992E-2],"categories":[],"categories_nodes":[],"categories_segments":[],"categories_sizes":[],"default_left":[1,1,1,1,1,1,1,0,0,0,0,0,0,0,0],"id":41,"left_children":[1,3,5,7,9,11,13,-1,-1,-1,-1,-1,-1,-1,-1],"loss_changes":[5.782237E0,1.367282E1,5.2341022E1,1.1812041E1,1.2232941E1,3.2262042E2,1.6051357E1,0E0,0E0,0E0,0E0,0E0,0E0,0E0,0E0],"parents":[2147483647,0,0,1,1,2,2,3,3,4,4,5,5,6,6],"right_children":[2,4,6,8,10,12,14,-1,-1,-1,-1,-1,-1,-1,-1],"split_conditions":[5E-1,5E-1,5E-1,5E-1,3.005E2,1.5E0,1.25E1,1.7609958E-3,1.3984938E-2,-6.962828E-4,-2.0537699E-2,-1.468247E-1,2.749136E-2,4.7753262E-3,-3.1943985E-3],"split_indices":[27,21,20,6,20,27,20,0,0,0,0,0,0,0,0],"split_type":[0,0,0,0,0,0,0,0,0,0,0,0,0,0,0],"sum_hessian":[9.2681E4,4.7771E4,4.491E4,4.2421E4,5.35E3,1.851E3,4.3059E4,3.8981E4,3.44E3,3.388E3,1.962E3,6.58E2,1.193E3,1.6211E4,2.6848E4],"tree_param":{"num_deleted":"0","num_feature":"28","num_nodes":"15","size_leaf_vector":"0"}},{"base_weights":[7.560278E-5,1.134654E-3,-6.2430013E-2,-8.66273E-6,9.074293E-2,4.622198E-2,-9.7202964E-2,-1.7497893E-3,4.402315E-2,9.590746E-2,-8.7909114E-1,1.2376539E-1,-9.9121846E-2,-8.0732875E-2,-4.4119188E-1],"categories":[],"categories_nodes":[],"categories_segments":[],"categories_sizes":[],"default_left":[1,1,1,1,1,1,1,0,0,0,0,0,0,0,0],"id":42,"left_children":[1,3,5,7,9,11,13,-1,-1,-1,-1,-1,-1,-1,-1],"loss_changes":[6.1353364E0,9.337272E0,5.839613E0,6.899341E0,5.8521957E0,4.2433968E0,6.587058E0,0E0,0E0,0E0,0E0,0E0,0E0,0E0,0E0],"parents":[2147483647,0,0,1,1,2,2,3,3,4,4,5,5,6,6],"right_children":[2,4,6,8,10,12,14,-1,-1,-1,-1,-1,-1,-1,-1],"split_conditions":[6.5E0,2.35E1,1.5E0,5E-1,2.7E1,5E-1,2.15E1,-3.4995787E-4,8.80463E-3,1.9181492E-2,-1.7581823E-1,2.4753077E-2,-1.9824369E-2,-1.6146576E-2,-8.823838E-2],"split_indices":[24,26,20,11,27,8,22,0,0,0,0,0,0,0,0],"split_type":[0,0,0,0,0,0,0,0,0,0,0,0,0,0,0],"sum_hessian":[9.2681E4,9.1138E4,1.543E3,8.9991E4,1.147E3,3.74E2,1.169E3,8.6569E4,3.422E3,1.142E3,5E0,2.44E2,1.3E2,1.117E3,5.2E1],"tree_param":{"num_deleted":"0","num_feature":"28","num_nodes":"15","size_leaf_vector":"0"}},{"base_weights":[5.730987E-5,2.5943213E-3,-2.5068428E-2,6.104823E-3,-1.8817391E-2,-7.224299E-2,2.0940386E-2,-6.53748E-2,8.198372E-3,-1.4820373E-2,-2.3498608E-1,-6.0868716E-1,-5.218046E-2,1.5230384E-1,-9.888563E-3],"categories":[],"categories_nodes":[],"categories_segments":[],"categories_sizes":[],"default_left":[1,1,1,1,1,1,1,0,0,0,0,0,0,0,0],"id":43,"left_children":[1,3,5,7,9,11,13,-1,-1,-1,-1,-1,-1,-1,-1],"loss_changes":[5.9080386E0,6.32784E0,1.8451036E1,1.0823977E1,1.0241665E1,4.5133934E1,1.7432945E1,0E0,0E0,0E0,0E0,0E0,0E0,0E0,0E0],"parents":[2147483647,0,0,1,1,2,2,3,3,4,4,5,5,6,6],"right_children":[2,4,6,8,10,12,14,-1,-1,-1,-1,-1,-1,-1,-1],"split_conditions":[2.5E0,5E-1,3.5E0,1.5E0,9.215E1,5E-1,1.95E1,-1.307496E-2,1.6396744E-3,-2.9640745E-3,-4.6997216E-2,-1.21737435E-1,-1.04360925E-2,3.046077E-2,-1.9777126E-3],"split_indices":[27,4,27,16,17,20,23,0,0,0,0,0,0,0,0],"split_type":[0,0,0,0,0,0,0,0,0,0,0,0,0,0,0],"sum_hessian":[9.2681E4,8.4182E4,8.499E3,7.2325E4,1.1857E4,4.196E3,4.303E3,2.057E3,7.0268E4,1.1643E4,2.14E2,1.5E2,4.046E3,8.17E2,3.486E3],"tree_param":{"num_deleted":"0","num_feature":"28","num_nodes":"15","size_leaf_vector":"0"}},{"base_weights":[4.3666558E-5,-7.2470526E-3,8.523975E-3,1.1838503E-3,-3.0498225E-2,2.0934137E-2,-1.2171753E-2,-5.9442845E-4,8.997003E-2,-5.160743E-4,-5.7035953E-2,4.932751E-2,5.5081514E-3,-2.5683604E-2,4.965337E-2],"categories":[],"categories_nodes":[],"categories_segments":[],"categories_sizes":[],"default_left":[1,1,1,1,1,1,1,0,0,0,0,0,0,0,0],"id":44,"left_children":[1,3,5,7,9,11,13,-1,-1,-1,-1,-1,-1,-1,-1],"loss_changes":[5.730387E0,9.769549E0,1.1004809E1,5.7749553E0,1.0552143E1,1.1731478E1,1.3419439E1,0E0,0E0,0E0,0E0,0E0,0E0,0E0,0E0],"parents":[2147483647,0,0,1,1,2,2,3,3,4,4,5,5,6,6],"right_children":[2,4,6,8,10,12,14,-1,-1,-1,-1,-1,-1,-1,-1],"split_conditions":[9.35E1,7.25E1,8.95E1,6.25E1,2.95E1,5E-1,3.575E2,-1.1888569E-4,1.7994007E-2,-1.03214865E-4,-1.1407191E-2,9.865503E-3,1.1016303E-3,-5.136721E-3,9.930674E-3],"split_indices":[19,17,18,23,20,5,19,0,0,0,0,0,0,0,0],"split_type":[0,0,0,0,0,0,0,0,0,0,0,0,0,0,0],"sum_hessian":[9.2681E4,4.9836E4,4.2845E4,3.6575E4,1.3261E4,2.6784E4,1.6061E4,3.5858E4,7.17E2,6.227E3,7.034E3,9.428E3,1.7356E4,1.3181E4,2.88E3],"tree_param":{"num_deleted":"0","num_feature":"28","num_nodes":"15","size_leaf_vector":"0"}},{"base_weights":[3.520478E-5,1.3991862E-3,-4.110585E-2,9.5114353E-7,5.860975E-2,-1.14547415E-2,-1.10061966E-1,2.1664754E-3,-4.9715225E-2,1.9343191E-1,2.2070345E-2,-1.743298E-2,4.9756008E-1,-1.2984106E-1,1.767271E-1],"categories":[],"categories_nodes":[],"categories_segments":[],"categories_sizes":[],"default_left":[1,1,1,1,1,1,1,0,0,0,0,0,0,0,0],"id":45,"left_children":[1,3,5,7,9,11,13,-1,-1,-1,-1,-1,-1,-1,-1],"loss_changes":[5.2009897E0,7.1761813E0,6.0796123E0,9.428076E0,1.0538191E1,6.3435264E0,5.099819E0,0E0,0E0,0E0,0E0,0E0,0E0,0E0,0E0],"parents":[2147483647,0,0,1,1,2,2,3,3,4,4,5,5,6,6],"right_children":[2,4,6,8,10,12,14,-1,-1,-1,-1,-1,-1,-1,-1],"split_conditions":[9.5E0,3.5E0,5E-1,2.5E0,5E-1,4.35E1,4.19E2,4.332951E-4,-9.943045E-3,3.8686384E-2,4.414069E-3,-3.486596E-3,9.951202E-2,-2.5968213E-2,3.534542E-2],"split_indices":[21,27,8,27,20,21,20,0,0,0,0,0,0,0,0],"split_type":[0,0,0,0,0,0,0,0,0,0,0,0,0,0,0],"sum_hessian":[9.2681E4,8.9708E4,2.973E3,8.7569E4,2.139E3,2.08E3,8.93E2,8.3915E4,3.654E3,4.55E2,1.684E3,2.057E3,2.3E1,8.36E2,5.7E1],"tree_param":{"num_deleted":"0","num_feature":"28","num_nodes":"15","size_leaf_vector":"0"}},{"base_weights":[2.9935956E-5,6.7018433E-3,-8.173241E-3,4.342337E-3,1.1671129E-1,-2.8669607E-2,1.6020596E-3,1.2045826E-2,-1.3551349E-2,1.3862854E-1,-2.0368302E-1,1.0583809E-1,-3.362417E-2,-1.6740172E-3,5.5068336E-2],"categories":[],"categories_nodes":[],"categories_segments":[],"categories_sizes":[],"default_left":[1,1,1,1,1,1,1,0,0,0,0,0,0,0,0],"id":46,"left_children":[1,3,5,7,9,11,13,-1,-1,-1,-1,-1,-1,-1,-1],"loss_changes":[5.0726404E0,1.3266484E1,8.329183E0,6.8979278E0,7.5700693E0,8.950518E0,4.9305387E0,0E0,0E0,0E0,0E0,0E0,0E0,0E0,0E0],"parents":[2147483647,0,0,1,1,2,2,3,3,4,4,5,5,6,6],"right_children":[2,4,6,8,10,12,14,-1,-1,-1,-1,-1,-1,-1,-1],"split_conditions":[5.45E1,2.355E2,2.5E0,1.35E1,3.69E2,3.25E1,5E-1,2.4091653E-3,-2.7102698E-3,2.772571E-2,-4.0736604E-2,2.116762E-2,-6.724834E-3,-3.3480345E-4,1.1013667E-2],"split_indices":[18,19,16,23,19,17,7,0,0,0,0,0,0,0,0],"split_type":[0,0,0,0,0,0,0,0,0,0,0,0,0,0,0],"sum_hessian":[9.2681E4,5.1111E4,4.157E4,5.0039E4,1.072E3,1.3423E4,2.8147E4,3.498E4,1.5059E4,1.004E3,6.8E1,4.76E2,1.2947E4,2.6523E4,1.624E3],"tree_param":{"num_deleted":"0","num_feature":"28","num_nodes":"15","size_leaf_vector":"0"}},{"base_weights":[2.409039E-5,1.11075395E-4,-5.676421E-1,-1.3436992E-3,3.3010922E-2,-7.998428E-1,1.8822871E-2,-8.441404E-3,6.934421E-3,3.4822185E-2,-6.6611266E-1,-9.150431E-1,1.1818181E-1,2.2412376E-1,-3.833822E-1],"categories":[],"categories_nodes":[],"categories_segments":[],"categories_sizes":[],"default_left":[1,1,1,1,1,1,1,0,0,0,0,0,0,0,0],"id":47,"left_children":[1,3,5,7,9,11,13,-1,-1,-1,-1,-1,-1,-1,-1],"loss_changes":[4.5765786E0,4.435374E0,1.951788E0,5.2144117E0,4.99703E0,1.208489E0,5.3249E-1,0E0,0E0,0E0,0E0,0E0,0E0,0E0,0E0],"parents":[2147483647,0,0,1,1,2,2,3,3,4,4,5,5,6,6],"right_children":[2,4,6,8,10,12,14,-1,-1,-1,-1,-1,-1,-1,-1],"split_conditions":[2.97E2,5E-1,9.015E1,9.35E1,1.55E1,1.5E0,5E-1,-1.688281E-3,1.3868843E-3,6.964437E-3,-1.3322254E-1,-1.8300863E-1,2.3636362E-2,4.4824753E-2,-7.667644E-2],"split_indices":[18,14,17,19,24,25,12,0,0,0,0,0,0,0,0],"split_type":[0,0,0,0,0,0,0,0,0,0,0,0,0,0,0],"sum_hessian":[9.2681E4,9.2668E4,1.3E1,8.8745E4,3.923E3,9E0,4E0,4.7779E4,4.0966E4,3.914E3,9E0,8E0,1E0,3E0,1E0],"tree_param":{"num_deleted":"0","num_feature":"28","num_nodes":"15","size_leaf_vector":"0"}},{"base_weights":[1.5139725E-5,3.3264462E-2,-1.4130673E-3,3.446906E-2,-1.0701871E0,-1.9975381E-3,9.022919E-2,3.5701286E-2,-7.292651E-1,-4.0142295E-5,-3.8801853E-2,5.184883E-2,5.084929E-1],"categories":[],"categories_nodes":[],"categories_segments":[],"categories_sizes":[],"default_left":[1,1,1,1,0,1,1,0,0,0,0,0,0],"id":48,"left_children":[1,3,5,7,-1,9,11,-1,-1,-1,-1,-1,-1],"loss_changes":[4.401248E0,5.1181493E0,4.760087E0,3.6207552E0,0E0,6.361486E0,9.009476E0,0E0,0E0,0E0,0E0,0E0,0E0],"parents":[2147483647,0,0,1,1,2,2,3,3,5,5,6,6],"right_children":[2,4,6,8,-1,10,12,-1,-1,-1,-1,-1,-1],"split_conditions":[1.5E0,2.6E1,8.65E1,2.55E1,-2.1403742E-1,6.5E0,5E-1,7.1402574E-3,-1.4585303E-1,-8.028459E-6,-7.7603706E-3,1.0369766E-2,1.0169858E-1],"split_indices":[18,19,23,22,0,22,12,0,0,0,0,0,0],"split_type":[0,0,0,0,0,0,0,0,0,0,0,0,0],"sum_hessian":[9.2681E4,3.816E3,8.8865E4,3.813E3,3E0,8.8303E4,5.62E2,3.808E3,5E0,8.3845E4,4.458E3,5.16E2,4.6E1],"tree_param":{"num_deleted":"0","num_feature":"28","num_nodes":"13","size_leaf_vector":"0"}},{"base_weights":[8.8594525E-6,-6.878742E-4,6.6916436E-2,-9.013911E-3,5.0546573E-3,7.9585746E-2,-3.3812773E-1,-7.347069E-4,-5.203899E-2,8.65828E-2,-9.415923E-4,9.540358E-2,-1.9903427E-1,6.4263153E-3,-7.026363E-1],"categories":[],"categories_nodes":[],"categories_segments":[],"categories_sizes":[],"default_left":[1,1,1,1,1,1,1,0,0,0,0,0,0,0,0],"id":49,"left_children":[1,3,5,7,9,11,13,-1,-1,-1,-1,-1,-1,-1,-1],"loss_changes":[4.320599E0,4.385812E0,4.934027E0,1.3337367E1,2.6539108E1,4.1091094E0,3.6727316E0,0E0,0E0,0E0,0E0,0E0,0E0,0E0,0E0],"parents":[2147483647,0,0,1,1,2,2,3,3,4,4,5,5,6,6],"right_children":[2,4,6,8,10,12,14,-1,-1,-1,-1,-1,-1,-1,-1],"split_conditions":[5E-1,5E-1,2.35E1,9.5E0,1.5E0,7.565E2,7.385E1,-1.4694138E-4,-1.0407798E-2,1.7316561E-2,-1.8831847E-4,1.9080717E-2,-3.9806854E-2,1.2852631E-3,-1.4052726E-1],"split_indices":[1,26,23,23,26,20,17,0,0,0,0,0,0,0,0],"split_type":[0,0,0,0,0,0,0,0,0,0,0,0,0,0,0],"sum_hessian":[9.2681E4,9.1727E4,9.54E2,3.7441E4,5.4286E4,9.26E2,2.8E1,3.14E4,6.041E3,3.718E3,5.0568E4,8.77E2,4.9E1,1.5E1,1.3E1],"tree_param":{"num_deleted":"0","num_feature":"28","num_nodes":"15","size_leaf_vector":"0"}},{"base_weights":[5.1314464E-6,1.255116E-2,-3.528121E-3,8.503261E-3,1.1216286E-1,-1.9303823E-2,2.3409326E-3,9.301434E-3,-4.3482295E-1,3.805392E-1,8.5220896E-2,-7.4171927E-3,-7.647337E-2,-9.04224E-4,7.320144E-2],"categories":[],"categories_nodes":[],"categories_segments":[],"categories_sizes":[],"default_left":[1,1,1,1,1,1,1,0,0,0,0,0,0,0,0],"id":50,"left_children":[1,3,5,7,9,11,13,-1,-1,-1,-1,-1,-1,-1,-1],"loss_changes":[4.108496E0,8.210875E0,6.6957912E0,6.9305015E0,5.710846E0,1.3324814E1,1.2120742E1,0E0,0E0,0E0,0E0,0E0,0E0,0E0,0E0],"parents":[2147483647,0,0,1,1,2,2,3,3,4,4,5,5,6,6],"right_children":[2,4,6,8,10,12,14,-1,-1,-1,-1,-1,-1,-1,-1],"split_conditions":[4.15E1,2.015E2,3.5E0,1.985E2,1.5E0,5E-1,5E-1,1.8602869E-3,-8.696459E-2,7.6107845E-2,1.704418E-2,-1.4834385E-3,-1.5294674E-2,-1.808448E-4,1.4640288E-2],"split_indices":[17,19,20,19,16,27,12,0,0,0,0,0,0,0,0],"split_type":[0,0,0,0,0,0,0,0,0,0,0,0,0,0,0],"sum_hessian":[9.2681E4,2.0365E4,7.2316E4,1.9571E4,7.94E2,1.9608E4,5.2708E4,1.9537E4,3.4E1,7.1E1,7.23E2,1.6234E4,3.374E3,5.0401E4,2.307E3],"tree_param":{"num_deleted":"0","num_feature":"28","num_nodes":"15","size_leaf_vector":"0"}},{"base_weights":[4.1815524E-6,-4.892539E-4,8.544323E-2,5.57374E-3,-8.040201E-3,1.3593923E-1,-8.0011986E-2,3.7285218E-3,9.1604695E-2,-9.113073E-1,-7.859459E-3,3.0854908E-1,8.80335E-2,-3.1640077E-1,1.1677202E-1],"categories":[],"categories_nodes":[],"categories_segments":[],"categories_sizes":[],"default_left":[1,1,1,1,1,1,1,0,0,0,0,0,0,0,0],"id":51,"left_children":[1,3,5,7,9,11,13,-1,-1,-1,-1,-1,-1,-1,-1],"loss_changes":[3.9074068E0,4.21886E0,4.45949E0,8.113443E0,6.691572E0,3.3428102E0,5.868331E0,0E0,0E0,0E0,0E0,0E0,0E0,0E0,0E0],"parents":[2147483647,0,0,1,1,2,2,3,3,4,4,5,5,6,6],"right_children":[2,4,6,8,10,12,14,-1,-1,-1,-1,-1,-1,-1,-1],"split_conditions":[5.965E2,5.45E1,3.655E2,2.355E2,1.05E1,7.565E1,1.435E2,7.4570434E-4,1.8320939E-2,-1.8226145E-1,-1.5718918E-3,6.1709817E-2,1.76067E-2,-6.328016E-2,2.3354404E-2],"split_indices":[19,18,20,19,19,17,18,0,0,0,0,0,0,0,0],"split_type":[0,0,0,0,0,0,0,0,0,0,0,0,0,0,0],"sum_hessian":[9.2681E4,9.215E4,5.31E2,5.1111E4,4.1039E4,4.07E2,1.24E2,5.0039E4,1.072E3,7E0,4.1032E4,8.7E1,3.2E2,5.6E1,6.8E1],"tree_param":{"num_deleted":"0","num_feature":"28","num_nodes":"15","size_leaf_vector":"0"}},{"base_weights":[1.7492727E-6,9.785669E-4,-4.227329E-2,2.5573673E-4,7.080199E-2,-7.26432E-2,4.1602083E-2,5.635694E-4,-1.6353834E-1,1.1038968E-2,1.5244332E-1,-1.2243581E-1,-1.2912648E-2,7.393383E-2,-2.3713098E-1],"categories":[],"categories_nodes":[],"categories_segments":[],"categories_sizes":[],"default_left":[1,1,1,1,1,1,1,0,0,0,0,0,0,0,0],"id":52,"left_children":[1,3,5,7,9,11,13,-1,-1,-1,-1,-1,-1,-1,-1],"loss_changes":[3.8273616E0,4.5721087E0,5.3356094E0,4.521034E0,4.5267906E0,4.56995E0,5.0424848E0,0E0,0E0,0E0,0E0,0E0,0E0,0E0,0E0],"parents":[2147483647,0,0,1,1,2,2,3,3,4,4,5,5,6,6],"right_children":[2,4,6,8,10,12,14,-1,-1,-1,-1,-1,-1,-1,-1],"split_conditions":[5E-1,5E-1,1.5E0,2.45E1,1.135E2,4.35E1,8.715E1,1.1271389E-4,-3.270767E-2,2.2077938E-3,3.0488664E-2,-2.4487162E-2,-2.5825296E-3,1.4786767E-2,-4.7426198E-2],"split_indices":[15,3,24,22,19,18,17,0,0,0,0,0,0,0,0],"split_type":[0,0,0,0,0,0,0,0,0,0,0,0,0,0,0],"sum_hessian":[9.2681E4,9.0589E4,2.092E3,8.9662E4,9.27E2,1.536E3,5.56E2,8.9495E4,1.67E2,5.36E2,3.91E2,8.37E2,6.99E2,4.99E2,5.7E1],"tree_param":{"num_deleted":"0","num_feature":"28","num_nodes":"15","size_leaf_vector":"0"}},{"base_weights":[5.7414957E-7,-4.1007416E-4,1.0130099E-1,-2.2364705E-4,-2.6827145E-1,1.6085505E-1,-3.5976443E-2,-4.7323667E-4,2.047341E-1,-6.55091E-1,1.932509E-1,1.7696552E-1,-4.3698046E-1,-3.8956353E-1,3.504272E-2],"categories":[],"categories_nodes":[],"categories_segments":[],"categories_sizes":[],"default_left":[1,1,1,1,1,1,1,0,0,0,0,0,0,0,0],"id":53,"left_children":[1,3,5,7,9,11,13,-1,-1,-1,-1,-1,-1,-1,-1],"loss_changes":[3.8555222E0,4.6095376E0,3.0661895E0,4.7190013E0,1.1613276E1,2.60852E0,2.8841105E0,0E0,0E0,0E0,0E0,0E0,0E0,0E0,0E0],"parents":[2147483647,0,0,1,1,2,2,3,3,4,4,5,5,6,6],"right_children":[2,4,6,8,10,12,14,-1,-1,-1,-1,-1,-1,-1,-1],"split_conditions":[1.155E2,2.45E1,1.05E1,9.5E0,3.3E1,8.715E1,2.35E1,-9.464734E-5,4.0946823E-2,-1.310182E-1,3.865018E-2,3.5393104E-2,-8.739609E-2,-7.791271E-2,7.0085446E-3],"split_indices":[23,22,24,27,25,17,21,0,0,0,0,0,0,0,0],"split_type":[0,0,0,0,0,0,0,0,0,0,0,0,0,0,0],"sum_hessian":[9.2681E4,9.2308E4,3.73E2,9.2245E4,6.3E1,2.6E2,1.13E2,9.2134E4,1.11E2,3.4E1,2.9E1,2.54E2,6E0,1.8E1,9.5E1],"tree_param":{"num_deleted":"0","num_feature":"28","num_nodes":"15","size_leaf_vector":"0"}},{"base_weights":[-1.7942814E-6,-7.364799E-4,5.037684E-2,-2.1991797E-3,2.8787792E-2,9.258107E-2,-9.445603E-2,-1.4587136E-2,2.6317562E-3,8.585515E-2,-9.485599E-3,1.02949865E-1,-5.6533456E-1,-1.602901E-1,1.3328134E-1],"categories":[],"categories_nodes":[],"categories_segments":[],"categories_sizes":[],"default_left":[1,1,1,1,1,1,1,0,0,0,0,0,0,0,0],"id":54,"left_children":[1,3,5,7,9,11,13,-1,-1,-1,-1,-1,-1,-1,-1],"loss_changes":[3.4304407E0,3.9450908E0,8.153646E0,5.209004E0,9.4195175E0,7.111292E0,4.541492E0,0E0,0E0,0E0,0E0,0E0,0E0,0E0,0E0],"parents":[2147483647,0,0,1,1,2,2,3,3,4,4,5,5,6,6],"right_children":[2,4,6,8,10,12,14,-1,-1,-1,-1,-1,-1,-1,-1],"split_conditions":[5E-1,5E-1,5E-1,5.5E0,5.5E0,5E-1,2.5E0,-2.9174273E-3,5.263513E-4,1.717103E-2,-1.8971198E-3,2.0589974E-2,-1.1306691E-1,-3.2058023E-2,2.6656268E-2],"split_indices":[2,13,24,20,20,15,24,0,0,0,0,0,0,0,0],"split_type":[0,0,0,0,0,0,0,0,0,0,0,0,0,0,0],"sum_hessian":[9.2681E4,9.135E4,1.331E3,8.7039E4,4.311E3,1.031E3,3E2,2.4419E4,6.262E4,1.73E3,2.581E3,1.016E3,1.5E1,2.33E2,6.7E1],"tree_param":{"num_deleted":"0","num_feature":"28","num_nodes":"15","size_leaf_vector":"0"}},{"base_weights":[-2.513667E-6,4.2022835E-3,-8.653993E-3,-6.9966177E-3,2.0843493E-2,-7.723746E-3,-7.8643924E-1,-3.0642241E-4,-4.148466E-2,1.9595511E-1,1.1674903E-2,-1.20247915E-1,-2.7721329E-3,-1.2552468E-1,-8.4162337E-1],"categories":[],"categories_nodes":[],"categories_segments":[],"categories_sizes":[],"default_left":[1,1,1,1,1,1,1,0,0,0,0,0,0,0,0],"id":55,"left_children":[1,3,5,7,9,11,13,-1,-1,-1,-1,-1,-1,-1,-1],"loss_changes":[3.3716102E0,1.1623689E1,2.1925295E1,8.602172E0,4.027863E1,1.686989E1,1.1935139E0,0E0,0E0,0E0,0E0,0E0,0E0,0E0,0E0],"parents":[2147483647,0,0,1,1,2,2,3,3,4,4,5,5,6,6],"right_children":[2,4,6,8,10,12,14,-1,-1,-1,-1,-1,-1,-1,-1],"split_conditions":[5E-1,5E-1,3.68E2,9.5E0,5E-1,5E-1,5E-1,-6.128448E-5,-8.296932E-3,3.9191023E-2,2.3349808E-3,-2.4049584E-2,-5.544266E-4,-2.5104938E-2,-1.6832468E-1],"split_indices":[24,26,20,23,20,20,27,0,0,0,0,0,0,0,0],"split_type":[0,0,0,0,0,0,0,0,0,0,0,0,0,0,0],"sum_hessian":[9.2681E4,6.2369E4,3.0312E4,3.7281E4,2.5088E4,3.0277E4,3.5E1,3.1225E4,6.056E3,1.247E3,2.3841E4,1.275E3,2.9002E4,3E0,3.2E1],"tree_param":{"num_deleted":"0","num_feature":"28","num_nodes":"15","size_leaf_vector":"0"}},{"base_weights":[-4.393095E-6,3.9723204E-3,-8.812472E-3,-6.4442297E-3,1.8467503E-2,-5.304941E-3,-9.762867E-2,-5.7482934E-3,-3.5890055E-1,1.0670489E-2,1.900956E-1,1.5737005E-1,-8.322694E-3,-2.80874E-1,3.964154E-2],"categories":[],"categories_nodes":[],"categories_segments":[],"categories_sizes":[],"default_left":[1,1,1,1,1,1,1,0,0,0,0,0,0,0,0],"id":56,"left_children":[1,3,5,7,9,11,13,-1,-1,-1,-1,-1,-1,-1,-1],"loss_changes":[3.2464404E0,9.641475E0,8.980412E0,9.111215E0,3.5727417E1,1.361714E1,2.756216E1,0E0,0E0,0E0,0E0,0E0,0E0,0E0,0E0],"parents":[2147483647,0,0,1,1,2,2,3,3,4,4,5,5,6,6],"right_children":[2,4,6,8,10,12,14,-1,-1,-1,-1,-1,-1,-1,-1],"split_conditions":[5E-1,5E-1,5E-1,2.405E2,5E-1,5E-1,5.5E0,-1.1496587E-3,-7.178011E-2,2.1340977E-3,3.801912E-2,3.147401E-2,-1.6645389E-3,-5.6174804E-2,7.928308E-3],"split_indices":[25,26,12,18,12,23,23,0,0,0,0,0,0,0,0],"split_type":[0,0,0,0,0,0,0,0,0,0,0,0,0,0,0],"sum_hessian":[9.2681E4,6.3853E4,2.8828E4,3.7154E4,2.6699E4,2.7734E4,1.094E3,3.7082E4,7.2E1,2.554E4,1.159E3,5.04E2,2.723E4,4.68E2,6.26E2],"tree_param":{"num_deleted":"0","num_feature":"28","num_nodes":"15","size_leaf_vector":"0"}},{"base_weights":[-4.1811177E-6,5.8675716E-3,-6.458292E-3,-3.485525E-3,3.962108E-2,9.8920725E-3,-3.2961298E-2,-1.0194711E-3,-8.299485E-2,5.9085127E-2,1.769009E-3,-1.4186837E-2,2.1697111E-2,-4.8368026E-2,-6.8196044E-3],"categories":[],"categories_nodes":[],"categories_segments":[],"categories_sizes":[],"default_left":[1,1,1,1,1,1,1,0,0,0,0,0,0,0,0],"id":57,"left_children":[1,3,5,7,9,11,13,-1,-1,-1,-1,-1,-1,-1,-1],"loss_changes":[3.5124176E0,1.5321458E1,1.9133034E1,7.451153E0,7.758045E0,7.7625074E0,6.784542E0,0E0,0E0,0E0,0E0,0E0,0E0,0E0,0E0],"parents":[2147483647,0,0,1,1,2,2,3,3,4,4,5,5,6,6],"right_children":[2,4,6,8,10,12,14,-1,-1,-1,-1,-1,-1,-1,-1],"split_conditions":[2.5E0,5E-1,1.645E2,2.35E1,5E-1,8.5E0,1.145E2,-2.0389422E-4,-1.659897E-2,1.1817026E-2,3.5380182E-4,-2.8373674E-3,4.3394226E-3,-9.673606E-3,-1.3639209E-3],"split_indices":[26,26,20,23,25,23,19,0,0,0,0,0,0,0,0],"split_type":[0,0,0,0,0,0,0,0,0,0,0,0,0,0,0],"sum_hessian":[9.2681E4,4.853E4,4.4151E4,3.8001E4,1.0529E4,2.7306E4,1.6845E4,3.6859E4,1.142E3,6.953E3,3.576E3,8.983E3,1.8323E4,1.0598E4,6.247E3],"tree_param":{"num_deleted":"0","num_feature":"28","num_nodes":"15","size_leaf_vector":"0"}},{"base_weights":[-3.5486933E-6,-8.687197E-4,4.1643735E-2,3.3981918E-4,-3.3072382E-2,-1.915749E-3,1.3636126E-1,2.5995756E-3,-2.2595843E-2,3.8545918E-2,-6.30235E-2,2.0077774E-1,-2.7921835E-2,3.17918E-1,9.5247254E-2],"categories":[],"categories_nodes":[],"categories_segments":[],"categories_sizes":[],"default_left":[1,1,1,1,1,1,1,0,0,0,0,0,0,0,0],"id":58,"left_children":[1,3,5,7,9,11,13,-1,-1,-1,-1,-1,-1,-1,-1],"loss_changes":[3.3395705E0,3.5337842E0,7.782485E0,4.5358443E0,7.047682E0,6.823527E0,4.399083E0,0E0,0E0,0E0,0E0,0E0,0E0,0E0,0E0],"parents":[2147483647,0,0,1,1,2,2,3,3,4,4,5,5,6,6],"right_children":[2,4,6,8,10,12,14,-1,-1,-1,-1,-1,-1,-1,-1],"split_conditions":[7.145E2,5.045E2,1.505E2,8.585E1,3.5E0,5E-1,1.5E0,5.1991513E-4,-4.5191688E-3,7.7091837E-3,-1.26047E-2,4.015555E-2,-5.584367E-3,6.3583605E-2,1.904945E-2],"split_indices":[20,20,19,17,23,23,16,0,0,0,0,0,0,0,0],"split_type":[0,0,0,0,0,0,0,0,0,0,0,0,0,0,0],"sum_hessian":[9.2681E4,9.0796E4,1.885E3,8.7513E4,3.283E3,1.292E3,5.93E2,7.9665E4,7.848E3,9.68E2,2.315E3,1.46E2,1.146E3,1.08E2,4.85E2],"tree_param":{"num_deleted":"0","num_feature":"28","num_nodes":"15","size_leaf_vector":"0"}},{"base_weights":[-1.3958854E-6,3.8460114E-3,-8.150637E-3,-1.166306E-2,1.1462917E-2,7.7296277E-3,-4.051031E-2,3.16545E-4,-3.4510037E-1,3.1788338E-3,3.1106897E-2,4.396152E-2,-1.4825234E-3,-1.4893115E-2,-7.449825E-2],"categories":[],"categories_nodes":[],"categories_segments":[],"categories_sizes":[],"default_left":[1,1,1,1,1,1,1,0,0,0,0,0,0,0,0],"id":59,"left_children":[1,3,5,7,9,11,13,-1,-1,-1,-1,-1,-1,-1,-1],"loss_changes":[2.9059443E0,7.437601E0,1.5275053E1,8.283378E1,6.8709626E0,6.655592E0,8.518404E0,0E0,0E0,0E0,0E0,0E0,0E0,0E0,0E0],"parents":[2147483647,0,0,1,1,2,2,3,3,4,4,5,5,6,6],"right_children":[2,4,6,8,10,12,14,-1,-1,-1,-1,-1,-1,-1,-1],"split_conditions":[4.5E0,5E-1,1.485E2,5E-1,1.525E2,5E-1,6.385E1,6.3309E-5,-6.902008E-2,6.357668E-4,6.2213796E-3,8.792304E-3,-2.9650467E-4,-2.978623E-3,-1.4899651E-2],"split_indices":[26,20,20,27,19,24,17,0,0,0,0,0,0,0,0],"split_type":[0,0,0,0,0,0,0,0,0,0,0,0,0,0,0],"sum_hessian":[9.2681E4,6.2958E4,2.9723E4,2.0736E4,4.2222E4,1.9939E4,9.784E3,2.0018E4,7.18E2,2.9699E4,1.2523E4,4.041E3,1.5898E4,5.58E3,4.204E3],"tree_param":{"num_deleted":"0","num_feature":"28","num_nodes":"15","size_leaf_vector":"0"}},{"base_weights":[-2.0426507E-6,5.0851684E-3,-6.256819E-3,-2.2694184E-3,2.0288631E-2,-5.745538E-2,-3.6633306E-3,7.7377986E-3,-2.3762897E-2,1.7878305E-2,1.4855762E-1,-3.986301E-2,-3.3038113E-1,5.668543E-2,-5.8508366E-3],"categories":[],"categories_nodes":[],"categories_segments":[],"categories_sizes":[],"default_left":[1,1,1,1,1,1,1,0,0,0,0,0,0,0,0],"id":60,"left_children":[1,3,5,7,9,11,13,-1,-1,-1,-1,-1,-1,-1,-1],"loss_changes":[2.9491272E0,5.7151756E0,5.519691E0,7.4098954E0,5.1488824E0,9.607185E0,5.2239265E0,0E0,0E0,0E0,0E0,0E0,0E0,0E0,0E0],"parents":[2147483647,0,0,1,1,2,2,3,3,4,4,5,5,6,6],"right_children":[2,4,6,8,10,12,14,-1,-1,-1,-1,-1,-1,-1,-1],"split_conditions":[5.45E1,6.95E1,4.15E1,1.25E1,7.475E2,4.685E2,5.25E1,1.5475597E-3,-4.7525796E-3,3.575661E-3,2.9711524E-2,-7.972602E-3,-6.607623E-2,1.1337086E-2,-1.1701674E-3],"split_indices":[18,19,19,23,20,20,19,0,0,0,0,0,0,0,0],"split_type":[0,0,0,0,0,0,0,0,0,0,0,0,0,0,0],"sum_hessian":[9.2681E4,5.1111E4,4.157E4,3.4448E4,1.6663E4,2.003E3,3.9567E4,2.3505E4,1.0943E4,1.6357E4,3.06E2,1.883E3,1.2E2,1.383E3,3.8184E4],"tree_param":{"num_deleted":"0","num_feature":"28","num_nodes":"15","size_leaf_vector":"0"}},{"base_weights":[-2.0758994E-6,-4.2475358E-4,7.5466774E-2,-3.8409176E-5,-2.0328176E-1,2.4560794E-1,1.7431865E-2,-7.349312E-4,7.7292554E-2,-1.3319992E-1,-8.377638E-1,2.7697507E-1,-4.404016E-1,-1.5768568E-1,6.8984166E-2],"categories":[],"categories_nodes":[],"categories_segments":[],"categories_sizes":[],"default_left":[1,1,1,1,1,1,1,0,0,0,0,0,0,0,0],"id":61,"left_children":[1,3,5,7,9,11,13,-1,-1,-1,-1,-1,-1,-1,-1],"loss_changes":[2.9565077E0,7.22338E0,5.0918875E0,4.9550714E0,7.6564755E0,2.9695563E0,3.4995563E0,0E0,0E0,0E0,0E0,0E0,0E0,0E0,0E0],"parents":[2147483647,0,0,1,1,2,2,3,3,4,4,5,5,6,6],"right_children":[2,4,6,8,10,12,14,-1,-1,-1,-1,-1,-1,-1,-1],"split_conditions":[7.5E0,6.5E0,6.05E1,6.65E1,5E-1,3.395E2,1.55E1,-1.4698625E-4,1.5458511E-2,-2.6639983E-2,-1.6755275E-1,5.5395015E-2,-8.8080324E-2,-3.1537138E-2,1.3796833E-2],"split_indices":[27,27,23,23,7,19,21,0,0,0,0,0,0,0,0],"split_type":[0,0,0,0,0,0,0,0,0,0,0,0,0,0,0],"sum_hessian":[9.2681E4,9.2166E4,5.15E2,9.1992E4,1.74E2,1.3E2,3.85E2,9.1172E4,8.2E2,1.58E2,1.6E1,1.25E2,5E0,8.7E1,2.98E2],"tree_param":{"num_deleted":"0","num_feature":"28","num_nodes":"15","size_leaf_vector":"0"}},{"base_weights":[-4.6303107E-6,-1.1737603E-3,2.6009759E-2,-2.1275524E-3,5.3124044E-2,7.097994E-2,-2.2810094E-2,2.2745589E-3,-1.293912E-2,2.7776796E-1,4.3576635E-2,8.1506565E-2,-3.570855E-2,-1.6714548E-1,-2.1719416E-3],"categories":[],"categories_nodes":[],"categories_segments":[],"categories_sizes":[],"default_left":[1,1,1,1,1,1,1,0,0,0,0,0,0,0,0],"id":62,"left_children":[1,3,5,7,9,11,13,-1,-1,-1,-1,-1,-1,-1,-1],"loss_changes":[2.818892E0,4.593659E0,8.753396E0,4.148647E0,3.2695417E0,2.3340883E0,5.6956563E0,0E0,0E0,0E0,0E0,0E0,0E0,0E0,0E0],"parents":[2147483647,0,0,1,1,2,2,3,3,4,4,5,5,6,6],"right_children":[2,4,6,8,10,12,14,-1,-1,-1,-1,-1,-1,-1,-1],"split_conditions":[5E-1,2.35E1,1.5E0,5E-1,2.615E1,3.5E0,2.5E0,4.549118E-4,-2.587824E-3,5.5553593E-2,8.715327E-3,1.6301313E-2,-7.1417103E-3,-3.3429097E-2,-4.3438832E-4],"split_indices":[11,26,25,24,17,27,20,0,0,0,0,0,0,0,0],"split_type":[0,0,0,0,0,0,0,0,0,0,0,0,0,0,0],"sum_hessian":[9.2681E4,8.8696E4,3.985E3,8.7166E4,1.53E3,2.074E3,1.911E3,6.1945E4,2.5221E4,6.1E1,1.469E3,1.888E3,1.86E2,2.38E2,1.673E3],"tree_param":{"num_deleted":"0","num_feature":"28","num_nodes":"15","size_leaf_vector":"0"}},{"base_weights":[-3.2194293E-6,6.46935E-5,-4.432027E-1,-3.4371048E-4,7.077031E-2,-1.336499E-1,-8.16758E-1,1.043581E-2,-2.8821765E-3,1.114879E-1,-6.266295E-2,-4.4094723E-1,2.0448974E-1],"categories":[],"categories_nodes":[],"categories_segments":[],"categories_sizes":[],"default_left":[1,1,1,1,1,1,0,0,0,0,0,0,0],"id":63,"left_children":[1,3,5,7,9,11,-1,-1,-1,-1,-1,-1,-1],"loss_changes":[2.7896738E0,2.6759872E0,1.5110271E0,2.5212548E0,2.8998694E0,1.0641696E0,0E0,0E0,0E0,0E0,0E0,0E0,0E0],"parents":[2147483647,0,0,1,1,2,2,3,3,4,4,5,5],"right_children":[2,4,6,8,10,12,-1,-1,-1,-1,-1,-1,-1],"split_conditions":[2.97E2,5.965E2,2.3E1,1.95E1,3.655E2,4.5E0,-1.633516E-1,2.087162E-3,-5.764353E-4,2.2297582E-2,-1.2532591E-2,-8.8189445E-2,4.0897947E-2],"split_indices":[18,19,20,19,20,20,0,0,0,0,0,0,0],"split_type":[0,0,0,0,0,0,0,0,0,0,0,0,0],"sum_hessian":[9.2681E4,9.2668E4,1.3E1,9.2137E4,5.31E2,8E0,5E0,1.7561E4,7.4576E4,4.07E2,1.24E2,4E0,4E0],"tree_param":{"num_deleted":"0","num_feature":"28","num_nodes":"13","size_leaf_vector":"0"}},{"base_weights":[-5.1935544E-6,-4.61886E-3,5.361262E-3,8.348836E-3,-1.16747E-2,3.5361607E-2,1.3957876E-3,1.1006356E-2,-1.0833188E-1,6.511578E-4,-2.7453894E-2,6.902959E-2,2.2770192E-3,-1.6012283E-2,8.567116E-3],"categories":[],"categories_nodes":[],"categories_segments":[],"categories_sizes":[],"default_left":[1,1,1,1,1,1,1,0,0,0,0,0,0,0,0],"id":64,"left_children":[1,3,5,7,9,11,13,-1,-1,-1,-1,-1,-1,-1,-1],"loss_changes":[2.2947516E0,4.5601206E0,5.097163E0,5.4471426E0,6.2774873E0,5.5717196E0,4.7247214E0,0E0,0E0,0E0,0E0,0E0,0E0,0E0,0E0],"parents":[2147483647,0,0,1,1,2,2,3,3,4,4,5,5,6,6],"right_children":[2,4,6,8,10,12,14,-1,-1,-1,-1,-1,-1,-1,-1],"split_conditions":[9.35E1,1.95E1,4.25E1,4.95E1,1.485E2,2.5E0,5.5E0,2.2012712E-3,-2.1666376E-2,1.3023156E-4,-5.490779E-3,1.3805918E-2,4.5540385E-4,-3.2024567E-3,1.7134233E-3],"split_indices":[19,19,17,18,20,26,20,0,0,0,0,0,0,0,0],"split_type":[0,0,0,0,0,0,0,0,0,0,0,0,0,0,0],"sum_hessian":[9.2681E4,4.9836E4,4.2845E4,1.7561E4,3.2275E4,5.001E3,3.7844E4,1.7171E4,3.9E2,1.8121E4,1.4154E4,2.478E3,2.523E3,1.1041E4,2.6803E4],"tree_param":{"num_deleted":"0","num_feature":"28","num_nodes":"15","size_leaf_vector":"0"}},{"base_weights":[-4.300922E-6,-1.4402657E-3,1.8223766E-2,-4.1442635E-3,2.0622745E-2,-6.719951E-2,4.239498E-2,-2.6988904E-3,-4.4219848E-2,2.3111628E-1,1.7218314E-2,-3.659866E-2,-1.8142505E-1,6.831002E-2,-1.7295597E-2],"categories":[],"categories_nodes":[],"categories_segments":[],"categories_sizes":[],"default_left":[1,1,1,1,1,1,1,0,0,0,0,0,0,0,0],"id":65,"left_children":[1,3,5,7,9,11,13,-1,-1,-1,-1,-1,-1,-1,-1],"loss_changes":[2.425975E0,5.12566E0,1.3978294E1,4.4331527E0,6.7171755E0,5.21136E0,8.163087E0,0E0,0E0,0E0,0E0,0E0,0E0,0E0,0E0],"parents":[2147483647,0,0,1,1,2,2,3,3,4,4,5,5,6,6],"right_children":[2,4,6,8,10,12,14,-1,-1,-1,-1,-1,-1,-1,-1],"split_conditions":[5E-1,5E-1,5E-1,1.725E2,5E-1,2.5E0,1.25E1,-5.397781E-4,-8.84397E-3,4.6223257E-2,3.4436628E-3,-7.319732E-3,-3.628501E-2,1.3662005E-2,-3.4591195E-3],"split_indices":[6,9,8,18,20,24,23,0,0,0,0,0,0,0,0],"split_type":[0,0,0,0,0,0,0,0,0,0,0,0,0,0,0],"sum_hessian":[9.2681E4,8.5914E4,6.767E3,7.6535E4,9.379E3,1.492E3,5.275E3,7.3872E4,2.663E3,1.48E2,9.231E3,1.178E3,3.14E2,3.678E3,1.597E3],"tree_param":{"num_deleted":"0","num_feature":"28","num_nodes":"15","size_leaf_vector":"0"}},{"base_weights":[-3.3545994E-6,-5.157544E-4,4.9411662E-2,1.56181E-3,-1.283234E-2,-2.402178E-2,1.2149824E-1,-8.430014E-4,1.8177409E-2,-9.59409E-3,-1.2029545E-1,-1.1749416E-1,8.730996E-2,1.4927596E-1,-2.2414912E-1],"categories":[],"categories_nodes":[],"categories_segments":[],"categories_sizes":[],"default_left":[1,1,1,1,1,1,1,0,0,0,0,0,0,0,0],"id":66,"left_children":[1,3,5,7,9,11,13,-1,-1,-1,-1,-1,-1,-1,-1],"loss_changes":[2.3467665E0,2.3473136E0,5.038742E0,3.136401E0,4.606104E0,4.9262323E0,4.6506925E0,0E0,0E0,0E0,0E0,0E0,0E0,0E0,0E0],"parents":[2147483647,0,0,1,1,2,2,3,3,4,4,5,5,6,6],"right_children":[2,4,6,8,10,12,14,-1,-1,-1,-1,-1,-1,-1,-1],"split_conditions":[5E-1,8.285E1,1.075E2,2.215E2,2.065E2,6.85E1,1.85E1,-1.6860028E-4,3.6354817E-3,-1.9188181E-3,-2.405909E-2,-2.3498831E-2,1.7461991E-2,2.9855192E-2,-4.4829827E-2],"split_indices":[3,17,20,19,18,17,23,0,0,0,0,0,0,0,0],"split_type":[0,0,0,0,0,0,0,0,0,0,0,0,0,0,0],"sum_hessian":[9.2681E4,9.1731E4,9.5E2,7.8492E4,1.3239E4,4.71E2,4.79E2,6.8569E4,9.923E3,1.2853E4,3.86E2,2.56E2,2.15E2,4.44E2,3.5E1],"tree_param":{"num_deleted":"0","num_feature":"28","num_nodes":"15","size_leaf_vector":"0"}},{"base_weights":[-3.2823973E-6,6.4080965E-4,-3.801781E-2,-8.856103E-5,6.9576465E-2,5.598002E-2,-6.8117246E-2,-1.4047822E-3,3.3090938E-2,2.459551E-1,4.2386346E-2,-1.829044E-1,8.675022E-2,-5.381855E-2,-3.503978E-1],"categories":[],"categories_nodes":[],"categories_segments":[],"categories_sizes":[],"default_left":[1,1,1,1,1,1,1,0,0,0,0,0,0,0,0],"id":67,"left_children":[1,3,5,7,9,11,13,-1,-1,-1,-1,-1,-1,-1,-1],"loss_changes":[2.2693393E0,4.5824537E0,4.3735533E0,3.9386272E0,4.5636E0,2.7769558E0,4.7005835E0,0E0,0E0,0E0,0E0,0E0,0E0,0E0,0E0],"parents":[2147483647,0,0,1,1,2,2,3,3,4,4,5,5,6,6],"right_children":[2,4,6,8,10,12,14,-1,-1,-1,-1,-1,-1,-1,-1],"split_conditions":[6.5E0,5.5E0,1.5E0,5E-1,1.35E1,1.25E1,1.645E2,-2.8095645E-4,6.6181878E-3,4.919102E-2,8.47727E-3,-3.6580883E-2,1.7350044E-2,-1.076371E-2,-7.007956E-2],"split_indices":[24,24,20,11,19,23,18,0,0,0,0,0,0,0,0],"split_type":[0,0,0,0,0,0,0,0,0,0,0,0,0,0,0],"sum_hessian":[9.2681E4,9.1138E4,1.543E3,9.0185E4,9.53E2,3.74E2,1.169E3,8.6745E4,3.44E3,1.26E2,8.27E2,4.2E1,3.32E2,1.114E3,5.5E1],"tree_param":{"num_deleted":"0","num_feature":"28","num_nodes":"15","size_leaf_vector":"0"}},{"base_weights":[-3.0719043E-6,-4.877248E-4,4.6538323E-2,-1.512395E-3,2.2439739E-2,5.4666225E-2,-3.755189E-1,7.7704695E-4,-1.5789833E-2,3.5072394E-2,-6.0857903E-2,7.705114E-2,-1.12642996E-1,-4.5967525E-1,4.872595E-1],"categories":[],"categories_nodes":[],"categories_segments":[],"categories_sizes":[],"default_left":[1,1,1,1,1,1,1,0,0,0,0,0,0,0,0],"id":68,"left_children":[1,3,5,7,9,11,13,-1,-1,-1,-1,-1,-1,-1,-1],"loss_changes":[2.090606E0,2.1550195E0,3.3013883E0,2.8701355E0,4.1318808E0,3.524164E0,1.5902486E0,0E0,0E0,0E0,0E0,0E0,0E0,0E0,0E0],"parents":[2147483647,0,0,1,1,2,2,3,3,4,4,5,5,6,6],"right_children":[2,4,6,8,10,12,14,-1,-1,-1,-1,-1,-1,-1,-1],"split_conditions":[5E-1,5E-1,5E-1,5E-1,2.5E0,7.285E2,8.235E1,1.5540939E-4,-3.1579665E-3,7.014479E-3,-1.217158E-2,1.5410229E-2,-2.25286E-2,-9.193505E-2,9.74519E-2],"split_indices":[1,14,15,4,27,20,17,0,0,0,0,0,0,0,0],"split_type":[0,0,0,0,0,0,0,0,0,0,0,0,0,0,0],"sum_hessian":[9.2681E4,9.1727E4,9.54E2,8.7804E4,3.923E3,9.37E2,1.7E1,7.5671E4,1.2133E4,3.407E3,5.16E2,8.27E2,1.1E2,1.6E1,1E0],"tree_param":{"num_deleted":"0","num_feature":"28","num_nodes":"15","size_leaf_vector":"0"}},{"base_weights":[-2.6146238E-6,-5.6203804E-4,3.835799E-2,-1.7422794E-3,2.3260865E-2,7.024666E-2,-7.107597E-2,-1.1411555E-3,-7.5544715E-2,9.769025E-2,1.1041192E-3,-4.3416563E-2,1.17547885E-1,-1.289713E-2,-3.2442722E-1],"categories":[],"categories_nodes":[],"categories_segments":[],"categories_sizes":[],"default_left":[1,1,1,1,1,1,1,0,0,0,0,0,0,0,0],"id":69,"left_children":[1,3,5,7,9,11,13,-1,-1,-1,-1,-1,-1,-1,-1],"loss_changes":[1.9889694E0,2.56855E0,4.654974E0,3.8613842E0,7.1111746E0,5.555654E0,4.434571E0,0E0,0E0,0E0,0E0,0E0,0E0,0E0,0E0],"parents":[2147483647,0,0,1,1,2,2,3,3,4,4,5,5,6,6],"right_children":[2,4,6,8,10,12,14,-1,-1,-1,-1,-1,-1,-1,-1],"split_conditions":[5E-1,5E-1,5E-1,8.5E0,2.5E0,4.985E1,1.715E2,-2.282311E-4,-1.5108943E-2,1.953805E-2,2.2082384E-4,-8.683313E-3,2.3509577E-2,-2.5794262E-3,-6.4885445E-2],"split_indices":[2,13,24,24,20,17,18,0,0,0,0,0,0,0,0],"split_type":[0,0,0,0,0,0,0,0,0,0,0,0,0,0,0],"sum_hessian":[9.2681E4,9.135E4,1.331E3,8.7039E4,4.311E3,1.031E3,3E2,8.6337E4,7.02E2,9.88E2,3.323E3,3.03E2,7.28E2,2.45E2,5.5E1],"tree_param":{"num_deleted":"0","num_feature":"28","num_nodes":"15","size_leaf_vector":"0"}},{"base_weights":[-2.6658358E-6,-9.989387E-4,2.045405E-2,9.1399264E-4,-3.9366297E-2,1.6759709E-1,5.4517714E-3,7.5708126E-4,4.1095555E-1,-2.0425027E-2,-5.196448E-1,2.4727589E-1,-1.5203622E-1,-2.8818993E-2,3.318328E-2],"categories":[],"categories_nodes":[],"categories_segments":[],"categories_sizes":[],"default_left":[1,1,1,1,1,1,1,0,0,0,0,0,0,0,0],"id":70,"left_children":[1,3,5,7,9,11,13,-1,-1,-1,-1,-1,-1,-1,-1],"loss_changes":[1.8889312E0,6.486557E0,9.500342E0,5.4159884E0,3.8169548E1,1.0186472E1,3.7144728E0,0E0,0E0,0E0,0E0,0E0,0E0,0E0,0E0],"parents":[2147483647,0,0,1,1,2,2,3,3,4,4,5,5,6,6],"right_children":[2,4,6,8,10,12,14,-1,-1,-1,-1,-1,-1,-1,-1],"split_conditions":[3.5E0,2.5E0,1.05E1,1.05E1,5E-1,4.5E0,6.15E1,1.5141626E-4,8.219111E-2,-4.0850057E-3,-1.0392896E-1,4.9455177E-2,-3.0407244E-2,-5.7637985E-3,6.6366564E-3],"split_indices":[27,27,23,25,12,27,19,0,0,0,0,0,0,0,0],"split_type":[0,0,0,0,0,0,0,0,0,0,0,0,0,0,0],"sum_hessian":[9.2681E4,8.8378E4,4.303E3,8.4182E4,4.196E3,3.97E2,3.906E3,8.4151E4,3.1E1,4.038E3,1.58E2,3.18E2,7.9E1,1.747E3,2.159E3],"tree_param":{"num_deleted":"0","num_feature":"28","num_nodes":"15","size_leaf_vector":"0"}},{"base_weights":[-2.1861672E-6,8.315308E-3,-2.3445855E-3,2.3116475E-2,-5.726377E-3,5.7387596E-4,-1.7632818E-2,2.9983075E-2,-7.196201E-2,-3.2875944E-2,1.3588179E-2,2.0151779E-3,-6.6676706E-2,-4.644426E-3,-6.726753E-2],"categories":[],"categories_nodes":[],"categories_segments":[],"categories_sizes":[],"default_left":[1,1,1,1,1,1,1,0,0,0,0,0,0,0,0],"id":71,"left_children":[1,3,5,7,9,11,13,-1,-1,-1,-1,-1,-1,-1,-1],"loss_changes":[1.8057407E0,4.232933E0,3.2266693E0,6.4758854E0,5.4814796E0,5.8862543E0,7.472828E0,0E0,0E0,0E0,0E0,0E0,0E0,0E0,0E0],"parents":[2147483647,0,0,1,1,2,2,3,3,4,4,5,5,6,6],"right_children":[2,4,6,8,10,12,14,-1,-1,-1,-1,-1,-1,-1,-1],"split_conditions":[4.15E1,2.5E0,1.5E0,5E-1,1.5E0,5E-1,1.885E2,5.996615E-3,-1.4392401E-2,-6.575189E-3,2.7176358E-3,4.0303558E-4,-1.3335342E-2,-9.2888525E-4,-1.3453506E-2],"split_indices":[17,26,25,7,21,15,20,0,0,0,0,0,0,0,0],"split_type":[0,0,0,0,0,0,0,0,0,0,0,0,0,0,0],"sum_hessian":[9.2681E4,2.0365E4,7.2316E4,9.914E3,1.0451E4,6.0725E4,1.1591E4,9.247E3,6.67E2,4.344E3,6.107E3,5.9452E4,1.273E3,9.188E3,2.403E3],"tree_param":{"num_deleted":"0","num_feature":"28","num_nodes":"15","size_leaf_vector":"0"}},{"base_weights":[-2.263442E-6,-6.458631E-4,2.9356657E-2,-4.8263784E-4,-2.6388428E-1,-9.246097E-2,4.7910225E-2,9.26363E-4,-2.1062072E-2,-1.0088772E0,-1.674855E-1,2.2926688E-1,-1.4797065E-1,3.4062424E-1,4.2667795E-2],"categories":[],"categories_nodes":[],"categories_segments":[],"categories_sizes":[],"default_left":[1,1,1,1,1,1,1,0,0,0,0,0,0,0,0],"id":72,"left_children":[1,3,5,7,9,11,13,-1,-1,-1,-1,-1,-1,-1,-1],"loss_changes":[1.7512892E0,3.896763E0,4.498949E0,2.6282663E0,3.8333147E0,4.741201E0,2.6314712E0,0E0,0E0,0E0,0E0,0E0,0E0,0E0,0E0],"parents":[2147483647,0,0,1,1,2,2,3,3,4,4,5,5,6,6],"right_children":[2,4,6,8,10,12,14,-1,-1,-1,-1,-1,-1,-1,-1],"split_conditions":[4.125E2,4.085E2,9.55E1,2.865E2,4.565E1,2.5E0,4.155E2,1.852726E-4,-4.2124144E-3,-2.0177543E-1,-3.3497103E-2,4.5853376E-2,-2.9594129E-2,6.812485E-2,8.533559E-3],"split_indices":[19,19,18,19,17,16,19,0,0,0,0,0,0,0,0],"split_type":[0,0,0,0,0,0,0,0,0,0,0,0,0,0,0],"sum_hessian":[9.2681E4,9.0694E4,1.987E3,9.0639E4,5.5E1,2.62E2,1.725E3,8.4832E4,5.807E3,5E0,5E1,3.8E1,2.24E2,2.9E1,1.696E3],"tree_param":{"num_deleted":"0","num_feature":"28","num_nodes":"15","size_leaf_vector":"0"}},{"base_weights":[-3.6891004E-6,5.0123625E-5,-3.511852E-1,2.0385943E-2,-8.235191E-4,-9.3489416E-2,-6.656012E-1,2.8605023E-2,-1.1024645E-1,-7.0989695E-3,3.7087025E-3,-3.5259366E-1,1.871893E-1],"categories":[],"categories_nodes":[],"categories_segments":[],"categories_sizes":[],"default_left":[1,1,1,1,1,1,0,0,0,0,0,0,0],"id":73,"left_children":[1,3,5,7,9,11,-1,-1,-1,-1,-1,-1,-1],"loss_changes":[1.7515324E0,1.6464033E0,1.0758642E0,4.102229E0,2.5271704E0,7.482726E-1,0E0,0E0,0E0,0E0,0E0,0E0,0E0],"parents":[2147483647,0,0,1,1,2,2,3,3,4,4,5,5],"right_children":[2,4,6,8,10,12,-1,-1,-1,-1,-1,-1,-1],"split_conditions":[2.97E2,1.5E0,2.3E1,9.5E0,6.95E1,4.5E0,-1.3312024E-1,5.7210047E-3,-2.2049291E-2,-1.4197939E-3,7.417405E-4,-7.051873E-2,3.743786E-2],"split_indices":[18,18,20,19,19,20,0,0,0,0,0,0,0],"split_type":[0,0,0,0,0,0,0,0,0,0,0,0,0],"sum_hessian":[9.2681E4,9.2668E4,1.3E1,3.816E3,8.8852E4,8E0,5E0,3.591E3,2.25E2,3.726E4,5.1592E4,4E0,4E0],"tree_param":{"num_deleted":"0","num_feature":"28","num_nodes":"13","size_leaf_vector":"0"}},{"base_weights":[-5.3154336E-6,-3.236399E-3,5.447301E-3,2.7096672E-3,-2.6401281E-2,8.332631E-3,-2.5605727E-2,2.1462208E-3,1.9231613E-1,-2.8047413E-1,-8.577744E-3,7.937264E-3,4.074998E-1,7.054375E-2,-4.8339207E-2],"categories":[],"categories_nodes":[],"categories_segments":[],"categories_sizes":[],"default_left":[1,1,1,1,1,1,1,0,0,0,0,0,0,0,0],"id":74,"left_children":[1,3,5,7,9,11,13,-1,-1,-1,-1,-1,-1,-1,-1],"loss_changes":[1.6328831E0,8.016164E0,3.090158E0,4.9470744E0,5.3828026E1,4.9760785E0,6.41333E0,0E0,0E0,0E0,0E0,0E0,0E0,0E0,0E0],"parents":[2147483647,0,0,1,1,2,2,3,3,4,4,5,5,6,6],"right_children":[2,4,6,8,10,12,14,-1,-1,-1,-1,-1,-1,-1,-1],"split_conditions":[1.5E0,5E-1,4.285E2,1.105E3,5E-1,4.275E2,6.5E0,4.2924416E-4,3.8463227E-2,-5.6094825E-2,-1.7155487E-3,1.5874527E-3,8.149996E-2,1.410875E-2,-9.667842E-3],"split_indices":[21,27,20,20,20,20,23,0,0,0,0,0,0,0,0],"split_type":[0,0,0,0,0,0,0,0,0,0,0,0,0,0,0],"sum_hessian":[9.2681E4,5.8196E4,3.4485E4,4.631E4,1.1886E4,3.1554E4,2.931E3,4.6174E4,1.36E2,7.78E2,1.1108E4,3.1524E4,3E1,5.6E2,2.371E3],"tree_param":{"num_deleted":"0","num_feature":"28","num_nodes":"15","size_leaf_vector":"0"}},{"base_weights":[-3.396612E-6,1.4250824E-3,-1.2806181E-2,8.2628825E-4,4.5716226E-2,-3.576946E-2,1.8023122E-2,1.7836044E-3,-1.09900706E-1,1.6081746E-1,1.0373228E-2,-3.2102752E-2,-2.0447996E-1,-2.7736327E-2,5.5918638E-2],"categories":[],"categories_nodes":[],"categories_segments":[],"categories_sizes":[],"default_left":[1,1,1,1,1,1,1,0,0,0,0,0,0,0,0],"id":75,"left_children":[1,3,5,7,9,11,13,-1,-1,-1,-1,-1,-1,-1,-1],"loss_changes":[1.6950411E0,2.2113044E0,6.5868983E0,8.720831E0,4.5224533E0,3.2906866E0,6.889966E0,0E0,0E0,0E0,0E0,0E0,0E0,0E0,0E0],"parents":[2147483647,0,0,1,1,2,2,3,3,4,4,5,5,6,6],"right_children":[2,4,6,8,10,12,14,-1,-1,-1,-1,-1,-1,-1,-1],"split_conditions":[5E-1,5.5E0,1.25E1,4.5E0,8.5E0,1.05E1,7.35E1,3.5672088E-4,-2.1980142E-2,3.2163493E-2,2.0746456E-3,-6.4205504E-3,-4.0895995E-2,-5.5472655E-3,1.11837275E-2],"split_indices":[10,27,23,27,21,26,19,0,0,0,0,0,0,0,0],"split_type":[0,0,0,0,0,0,0,0,0,0,0,0,0,0,0],"sum_hessian":[9.2681E4,8.3379E4,9.302E3,8.2268E4,1.111E3,5.331E3,3.971E3,8.1564E4,7.04E2,2.6E2,8.51E2,5.219E3,1.12E2,1.799E3,2.172E3],"tree_param":{"num_deleted":"0","num_feature":"28","num_nodes":"15","size_leaf_vector":"0"}},{"base_weights":[-3.0558037E-6,1.8020337E-4,-9.51345E-2,-2.7605597E-4,8.293903E-2,-5.178839E-1,-1.2188794E-2,-1.9778615E-4,-5.0727683E-1,5.2126408E-2,4.124415E-1,-2.7378437E-1,-7.8887266E-1,-8.12086E-1,1.6361766E-2],"categories":[],"categories_nodes":[],"categories_segments":[],"categories_sizes":[],"default_left":[1,1,1,1,1,1,1,0,0,0,0,0,0,0,0],"id":76,"left_children":[1,3,5,7,9,11,13,-1,-1,-1,-1,-1,-1,-1,-1],"loss_changes":[1.6158152E0,3.4929767E0,6.2410517E0,3.6506708E0,5.1237183E0,1.6723523E0,3.446139E0,0E0,0E0,0E0,0E0,0E0,0E0,0E0,0E0],"parents":[2147483647,0,0,1,1,2,2,3,3,4,4,5,5,6,6],"right_children":[2,4,6,8,10,12,14,-1,-1,-1,-1,-1,-1,-1,-1],"split_conditions":[2.45E1,8.65E1,4.55E1,8.55E1,5E-1,2.7E1,2.85E1,-3.955723E-5,-1.0145537E-1,1.0425282E-2,8.24883E-2,-5.4756876E-2,-1.5777454E-1,-1.624172E-1,3.2723532E-3],"split_indices":[22,23,26,23,12,18,22,0,0,0,0,0,0,0,0],"split_type":[0,0,0,0,0,0,0,0,0,0,0,0,0,0,0],"sum_hessian":[9.2681E4,9.2504E4,1.77E2,9.1998E4,5.06E2,2.8E1,1.49E2,9.1985E4,1.3E1,4.64E2,4.2E1,1.6E1,1.2E1,4E0,1.45E2],"tree_param":{"num_deleted":"0","num_feature":"28","num_nodes":"15","size_leaf_vector":"0"}},{"base_weights":[-7.3481306E-6,3.685601E-3,-4.547865E-3,2.4721841E-3,7.672679E-2,-1.4138652E-2,7.545861E-3,1.5987003E-2,-2.501223E-3,4.45307E-2,4.0140212E-1,-8.923352E-3,-6.7242414E-2,3.343527E-3,1.2732482E-1],"categories":[],"categories_nodes":[],"categories_segments":[],"categories_sizes":[],"default_left":[1,1,1,1,1,1,1,0,0,0,0,0,0,0,0],"id":77,"left_children":[1,3,5,7,9,11,13,-1,-1,-1,-1,-1,-1,-1,-1],"loss_changes":[1.554106E0,4.529816E0,4.821903E0,3.3794816E0,8.7091255E0,6.4204683E0,9.254707E0,0E0,0E0,0E0,0E0,0E0,0E0,0E0,0E0],"parents":[2147483647,0,0,1,1,2,2,3,3,4,4,5,5,6,6],"right_children":[2,4,6,8,10,12,14,-1,-1,-1,-1,-1,-1,-1,-1],"split_conditions":[5.45E1,2.475E2,8.5E0,5E-1,2.65E1,5.5E0,5E-1,3.1974006E-3,-5.002446E-4,8.90614E-3,8.028042E-2,-1.7846704E-3,-1.3448483E-2,6.687054E-4,2.5464965E-2],"split_indices":[18,19,23,5,23,26,12,0,0,0,0,0,0,0,0],"split_type":[0,0,0,0,0,0,0,0,0,0,0,0,0,0,0],"sum_hessian":[9.2681E4,5.1111E4,4.157E4,5.0277E4,8.34E2,2.3184E4,1.8386E4,1.3524E4,3.6753E4,7.6E2,7.4E1,2.1112E4,2.072E3,1.7764E4,6.22E2],"tree_param":{"num_deleted":"0","num_feature":"28","num_nodes":"15","size_leaf_vector":"0"}},{"base_weights":[-4.5765223E-6,-1.3811346E-2,1.099924E-3,1.0786617E-2,-9.112195E-2,-7.2299724E-4,3.5631504E-2,3.741544E-2,-5.0563112E-2,-1.1772238E-1,2.2723468E-1,-6.33643E-4,-8.888118E-1,-7.51918E-2,5.47698E-2],"categories":[],"categories_nodes":[],"categories_segments":[],"categories_sizes":[],"default_left":[1,1,1,1,1,1,1,0,0,0,0,0,0,0,0],"id":78,"left_children":[1,3,5,7,9,11,13,-1,-1,-1,-1,-1,-1,-1,-1],"loss_changes":[1.4133832E0,1.3056617E1,5.4021444E0,8.51239E0,1.4065971E1,6.468005E0,9.131897E0,0E0,0E0,0E0,0E0,0E0,0E0,0E0,0E0],"parents":[2147483647,0,0,1,1,2,2,3,3,4,4,5,5,6,6],"right_children":[2,4,6,8,10,12,14,-1,-1,-1,-1,-1,-1,-1,-1],"split_conditions":[1.5E0,5E-1,5E-1,7.415E1,8.95E1,1.483E3,3.915E1,7.4830884E-3,-1.0112623E-2,-2.3544475E-2,4.5446936E-2,-1.267286E-4,-1.7776237E-1,-1.5038361E-2,1.095396E-2],"split_indices":[16,7,7,17,17,20,17,0,0,0,0,0,0,0,0],"split_type":[0,0,0,0,0,0,0,0,0,0,0,0,0,0,0],"sum_hessian":[9.2681E4,6.864E3,8.5817E4,5.208E3,1.656E3,8.1515E4,4.302E3,3.632E3,1.576E3,1.529E3,1.27E2,8.1508E4,7E0,6.33E2,3.669E3],"tree_param":{"num_deleted":"0","num_feature":"28","num_nodes":"15","size_leaf_vector":"0"}},{"base_weights":[-5.774843E-6,1.6597463E-3,-1.0248282E-2,1.1692975E-3,8.292854E-2,-3.1809974E-2,3.9444797E-2,-3.484595E-2,2.2112571E-3,1.18235536E-1,-2.1429744E-1,1.1230489E-1,-4.0746026E-2,6.488425E-2,5.9290375E-3],"categories":[],"categories_nodes":[],"categories_segments":[],"categories_sizes":[],"default_left":[1,1,1,1,1,1,1,0,0,0,0,0,0,0,0],"id":79,"left_children":[1,3,5,7,9,11,13,-1,-1,-1,-1,-1,-1,-1,-1],"loss_changes":[1.5810963E0,3.1773853E0,1.3891147E1,2.9738069E0,5.048711E0,1.1648904E1,3.3445477E0,0E0,0E0,0E0,0E0,0E0,0E0,0E0,0E0],"parents":[2147483647,0,0,1,1,2,2,3,3,4,4,5,5,6,6],"right_children":[2,4,6,8,10,12,14,-1,-1,-1,-1,-1,-1,-1,-1],"split_conditions":[5E-1,9.515E1,2.5E0,1.5E0,5E-1,7.5E0,5E-1,-6.9691897E-3,4.4225142E-4,2.3647107E-2,-4.285949E-2,2.2460978E-2,-8.149206E-3,1.297685E-2,1.1858075E-3],"split_indices":[4,17,16,16,10,18,8,0,0,0,0,0,0,0,0],"split_type":[0,0,0,0,0,0,0,0,0,0,0,0,0,0,0],"sum_hessian":[9.2681E4,7.9719E4,1.2962E4,7.9242E4,4.77E2,9.04E3,3.922E3,2.227E3,7.7015E4,4.27E2,5E1,5.27E2,8.513E3,2.229E3,1.693E3],"tree_param":{"num_deleted":"0","num_feature":"28","num_nodes":"15","size_leaf_vector":"0"}},{"base_weights":[-4.600673E-6,-9.1343315E-4,1.7846018E-2,-4.6279974E-4,-5.673899E-2,5.9465088E-2,-1.4160191E-2,-1.6337567E-3,2.5374278E-2,-5.8322555E-1,-4.273704E-2,8.930127E-2,-9.237171E-2,-3.0142715E-2,9.996298E-2],"categories":[],"categories_nodes":[],"categories_segments":[],"categories_sizes":[],"default_left":[1,1,1,1,1,1,1,0,0,0,0,0,0,0,0],"id":80,"left_children":[1,3,5,7,9,11,13,-1,-1,-1,-1,-1,-1,-1,-1],"loss_changes":[1.5036235E0,2.2186325E0,5.9822655E0,2.6469274E0,5.1760817E0,8.853815E0,4.6350565E0,0E0,0E0,0E0,0E0,0E0,0E0,0E0,0E0],"parents":[2147483647,0,0,1,1,2,2,3,3,4,4,5,5,6,6],"right_children":[2,4,6,8,10,12,14,-1,-1,-1,-1,-1,-1,-1,-1],"split_conditions":[5E-1,8.5E0,3.5E0,5E-1,6.5E0,1.85E1,5.5E0,-3.2675135E-4,5.074856E-3,-1.1664511E-1,-8.5474085E-3,1.7860254E-2,-1.8474342E-2,-6.028543E-3,1.9992596E-2],"split_indices":[13,24,23,11,26,20,22,0,0,0,0,0,0,0,0],"split_type":[0,0,0,0,0,0,0,0,0,0,0,0,0,0,0],"sum_hessian":[9.2681E4,8.8192E4,4.489E3,8.7487E4,7.05E2,1.951E3,2.538E3,8.3695E4,3.792E3,1.7E1,6.88E2,1.631E3,3.2E2,2.227E3,3.11E2],"tree_param":{"num_deleted":"0","num_feature":"28","num_nodes":"15","size_leaf_vector":"0"}},{"base_weights":[-5.0670374E-6,1.367732E-3,-1.1395145E-2,3.2894075E-4,3.7928447E-2,-4.3089364E-2,1.0090017E-3,-8.9608453E-4,3.0896025E-2,2.3916616E-1,3.403268E-2,-3.9956978E-1,-3.52532E-2,9.023079E-2,-8.498515E-3],"categories":[],"categories_nodes":[],"categories_segments":[],"categories_sizes":[],"default_left":[1,1,1,1,1,1,1,0,0,0,0,0,0,0,0],"id":81,"left_children":[1,3,5,7,9,11,13,-1,-1,-1,-1,-1,-1,-1,-1],"loss_changes":[1.4492242E0,3.1413834E0,3.9193408E0,3.0117784E0,1.7817729E0,7.816454E0,6.0798473E0,0E0,0E0,0E0,0E0,0E0,0E0,0E0,0E0],"parents":[2147483647,0,0,1,1,2,2,3,3,4,4,5,5,6,6],"right_children":[2,4,6,8,10,12,14,-1,-1,-1,-1,-1,-1,-1,-1],"split_conditions":[2.5E0,5E-1,1.5E0,5E-1,5E-1,5E-1,5E-1,-1.792169E-4,6.179205E-3,4.783323E-2,6.806536E-3,-7.991396E-2,-7.0506404E-3,1.804616E-2,-1.699703E-3],"split_indices":[24,11,27,14,26,20,20,0,0,0,0,0,0,0,0],"split_type":[0,0,0,0,0,0,0,0,0,0,0,0,0,0,0],"sum_hessian":[9.2681E4,8.2713E4,9.968E3,8.0429E4,2.284E3,2.803E3,7.165E3,7.7331E4,3.098E3,4.2E1,2.242E3,5.9E1,2.744E3,6.89E2,6.476E3],"tree_param":{"num_deleted":"0","num_feature":"28","num_nodes":"15","size_leaf_vector":"0"}},{"base_weights":[-4.219176E-6,9.6495525E-4,-1.7053654E-2,8.7216566E-4,3.3708835E-1,5.3829428E-2,-2.7752895E-2,1.0045598E-3,-1.9846094E-1,4.6742223E-2,4.770068E-1,2.6854876E-1,2.0763393E-2,-1.9248804E-2,-1.5451083E-1],"categories":[],"categories_nodes":[],"categories_segments":[],"categories_sizes":[],"default_left":[1,1,1,1,1,1,1,0,0,0,0,0,0,0,0],"id":82,"left_children":[1,3,5,7,9,11,13,-1,-1,-1,-1,-1,-1,-1,-1],"loss_changes":[1.5314889E0,2.7348442E0,3.7825441E0,2.3140352E0,9.563639E-1,4.6380754E0,4.6663733E0,0E0,0E0,0E0,0E0,0E0,0E0,0E0,0E0],"parents":[2147483647,0,0,1,1,2,2,3,3,4,4,5,5,6,6],"right_children":[2,4,6,8,10,12,14,-1,-1,-1,-1,-1,-1,-1,-1],"split_conditions":[6.5E0,1.55E1,1.5E0,1.05E1,2.5E0,2.5E0,8.65E1,2.0091196E-4,-3.969219E-2,9.348445E-3,9.540136E-2,5.3709753E-2,4.152679E-3,-3.8497609E-3,-3.0902166E-2],"split_indices":[22,24,20,24,19,21,17,0,0,0,0,0,0,0,0],"split_type":[0,0,0,0,0,0,0,0,0,0,0,0,0,0,0],"sum_hessian":[9.2681E4,8.7697E4,4.984E3,8.7674E4,2.3E1,6.53E2,4.331E3,8.7617E4,5.7E1,8E0,1.5E1,8.6E1,5.67E2,4.06E3,2.71E2],"tree_param":{"num_deleted":"0","num_feature":"28","num_nodes":"15","size_leaf_vector":"0"}},{"base_weights":[-2.192047E-6,-1.4489347E-3,1.1156734E-2,-3.3967393E-3,2.5601309E-2,-5.852803E-2,1.7425435E-2,-2.4337051E-3,-4.8666324E-2,9.583417E-2,7.862173E-3,-4.8067044E-2,-5.496689E-1,1.3074455E-2,1.22427225E-1],"categories":[],"categories_nodes":[],"categories_segments":[],"categories_sizes":[],"default_left":[1,1,1,1,1,1,1,0,0,0,0,0,0,0,0],"id":83,"left_children":[1,3,5,7,9,11,13,-1,-1,-1,-1,-1,-1,-1,-1],"loss_changes":[1.4962895E0,4.3230023E0,4.6479025E0,3.3365414E0,6.865337E0,4.4803243E0,4.457131E0,0E0,0E0,0E0,0E0,0E0,0E0,0E0,0E0],"parents":[2147483647,0,0,1,1,2,2,3,3,4,4,5,5,6,6],"right_children":[2,4,6,8,10,12,14,-1,-1,-1,-1,-1,-1,-1,-1],"split_conditions":[5E-1,5E-1,4.5E0,4.5E0,5E-1,5E-1,4.5E0,-4.8674105E-4,-9.733265E-3,1.9166835E-2,1.5724347E-3,-9.613409E-3,-1.09933786E-1,2.614891E-3,2.4485445E-2],"split_indices":[9,6,18,27,23,6,27,0,0,0,0,0,0,0,0],"split_type":[0,0,0,0,0,0,0,0,0,0,0,0,0,0,0],"sum_hessian":[9.2681E4,8.2045E4,1.0636E4,7.6535E4,5.51E3,8.77E2,9.759E3,7.4942E4,1.593E3,1.11E3,4.4E3,8.6E2,1.7E1,9.372E3,3.87E2],"tree_param":{"num_deleted":"0","num_feature":"28","num_nodes":"15","size_leaf_vector":"0"}},{"base_weights":[-2.8204392E-6,1.7138576E-2,-8.749314E-4,-4.9998615E-2,3.1787936E-2,-8.1808664E-2,-5.2359543E-4,1.0758133E-2,-2.1119231E-1,7.893532E-2,-4.172519E-3,-1.6442001E-1,9.279387E-2,-6.107582E-3,3.4622916E-3],"categories":[],"categories_nodes":[],"categories_segments":[],"categories_sizes":[],"default_left":[1,1,1,1,1,1,1,0,0,0,0,0,0,0,0],"id":84,"left_children":[1,3,5,7,9,11,13,-1,-1,-1,-1,-1,-1,-1,-1],"loss_changes":[1.3855428E0,4.4151435E0,2.5078015E0,7.878744E0,6.2467394E0,5.516795E0,1.9545628E0,0E0,0E0,0E0,0E0,0E0,0E0,0E0,0E0],"parents":[2147483647,0,0,1,1,2,2,3,3,4,4,5,5,6,6],"right_children":[2,4,6,8,10,12,14,-1,-1,-1,-1,-1,-1,-1,-1],"split_conditions":[2.615E1,1.05E1,2.65E1,7.5E0,2.5E0,1.055E2,5E-1,2.1516266E-3,-4.2238463E-2,1.5787063E-2,-8.345038E-4,-3.2884E-2,1.8558774E-2,-1.2215164E-3,6.924583E-4],"split_indices":[17,19,17,19,26,19,26,0,0,0,0,0,0,0,0],"split_type":[0,0,0,0,0,0,0,0,0,0,0,0,0,0,0],"sum_hessian":[9.2681E4,4.486E3,8.8195E4,8.03E2,3.683E3,3.8E2,8.7815E4,5.84E2,2.19E2,1.593E3,2.09E3,2.58E2,1.22E2,3.6575E4,5.124E4],"tree_param":{"num_deleted":"0","num_feature":"28","num_nodes":"15","size_leaf_vector":"0"}},{"base_weights":[-2.7809097E-6,-3.9283134E-4,3.761306E-2,-1.2819704E-3,1.7774198E-2,-3.0810632E-2,9.461616E-2,3.5863917E-4,-3.403017E-2,1.3623305E-1,5.621427E-3,-4.3445034E-3,-5.7166696E-1,1.2769517E-1,-1.6014305E-1],"categories":[],"categories_nodes":[],"categories_segments":[],"categories_sizes":[],"default_left":[1,1,1,1,1,1,1,0,0,0,0,0,0,0,0],"id":85,"left_children":[1,3,5,7,9,11,13,-1,-1,-1,-1,-1,-1,-1,-1],"loss_changes":[1.3598579E0,1.481779E0,3.7135231E0,4.698613E0,6.1608715E0,6.1980057E0,4.399933E0,0E0,0E0,0E0,0E0,0E0,0E0,0E0,0E0],"parents":[2147483647,0,0,1,1,2,2,3,3,4,4,5,5,6,6],"right_children":[2,4,6,8,10,12,14,-1,-1,-1,-1,-1,-1,-1,-1],"split_conditions":[5E-1,3.5E0,6.615E1,2.5E0,1.05E1,2.25E1,1.5E0,7.172784E-5,-6.806034E-3,2.724661E-2,1.1242855E-3,-8.689007E-4,-1.1433339E-1,2.5539035E-2,-3.202861E-2],"split_indices":[3,27,17,27,23,23,25,0,0,0,0,0,0,0,0],"split_type":[0,0,0,0,0,0,0,0,0,0,0,0,0,0,0],"sum_hessian":[9.2681E4,9.1731E4,9.5E2,8.7452E4,4.279E3,4.32E2,5.18E2,8.3281E4,4.171E3,3.97E2,3.882E3,4.13E2,1.9E1,4.59E2,5.9E1],"tree_param":{"num_deleted":"0","num_feature":"28","num_nodes":"15",